3586 100
- -0.35826 0.23586 0.20383 0.071026 -0.15079 0.014253 -0.12091 -0.268 -0.022285 0.20288 0.1897 0.045687 0.0037434 -0.32638 -0.019924 0.14314 -0.10154 -0.18272 -0.00071323 0.019523 -0.035411 0.12459 0.024746 -0.087377 -0.11987 -0.31252 0.027736 0.03454 0.21276 0.12207 0.097817 0.0048084 0.030477 -0.28209 0.071635 0.12915 -0.041335 0.28043 0.17441 0.13389 -0.040961 -0.41888 -0.059551 -0.066425 0.35618 0.19849 -0.2752 0.052808 0.058499 0.26491 -0.33841 0.001543 0.074853 0.08081 -0.13231 0.24871 -0.011547 -0.11992 -0.065045 0.013834 0.019369 0.11039 -0.10694 0.23889 0.2344 0.26714 0.089826 -0.11965 -0.3111 -0.010688 -0.01725 0.16787 -0.048431 -0.06864 -0.33 0.17328 -0.22207 -0.083528 0.074026 -0.016286 0.029818 0.046483 -0.11853 0.1014 -0.1234 -0.0061381 -0.13407 -0.045373 0.081305 -0.023409 0.080156 0.028735 0.12553 0.12983 -0.2784 -0.12101 -0.16683 0.18125 -0.15454 -0.1336 
</s> 0.073036 -0.051611 -0.008143 0.025722 -0.070717 0.1136 -0.20301 0.074667 0.13504 0.066471 0.19628 0.01099 0.03031 0.014924 -0.030947 0.089386 0.13713 -0.18035 0.059142 0.14993 0.094587 0.030117 -0.030118 0.10422 -0.11897 -0.061365 0.062198 -0.019859 0.13463 0.0571 0.12578 0.066548 0.021913 -0.20924 0.025666 0.20542 0.11489 0.15643 0.076724 0.15084 0.004839 -0.18466 -0.067038 -0.17664 0.060611 0.082288 -0.058454 -0.052053 0.078729 0.30399 -0.047501 0.021188 0.1435 0.10594 0.03723 0.29976 0.01177 -0.32237 -0.092627 -0.011471 -0.063969 -0.036788 -0.1802 -0.02267 0.0036363 0.20399 0.15516 -0.070335 -0.11358 -0.049752 -0.066452 0.15319 0.10972 0.030014 -0.20469 0.28651 -0.22801 -0.04397 -0.043144 -0.0064348 -0.097671 0.070255 0.11726 0.091138 -0.055588 0.02232 -0.071482 0.042263 0.088286 0.027016 0.16669 -0.059711 0.081998 0.049904 -0.26215 -0.13747 -0.19596 -0.023048 -0.18587 0.01703 
) 0.23377 0.12455 0.33424 0.23599 -0.17293 0.40513 0.062686 -0.040846 0.23725 -0.134 0.20926 0.13612 0.14978 0.10157 -0.36219 -0.19708 0.32578 -0.023241 0.027337 -0.098737 0.1821 0.16265 0.22073 0.1475 -0.18993 0.26694 0.081676 -0.2994 0.11369 0.073775 0.27713 0.25022 0.046862 -0.28469 -0.051332 0.22353 -0.14865 0.18882 -0.32148 0.14471 -0.038321 -0.14569 -0.15178 0.025246 -0.097462 0.1434 0.061583 -0.061082 0.18084 0.25577 0.012005 -0.31446 0.12467 0.036278 0.074818 0.057803 0.23488 -0.17815 -0.27083 -0.3929 -0.18622 0.12781 -0.038943 -0.22448 -0.41038 0.40347 -0.055766 -0.092851 -0.060509 0.1468 -0.14372 0.3015 0.37053 -0.058376 -0.42272 0.32874 0.15135 -0.079054 -0.19079 0.038681 -0.16015 0.31975 0.076013 0.30279 -0.0047213 0.16834 0.17905 0.077588 -0.12419 0.12491 -0.047994 -0.0033908 0.20793 -0.11847 -0.21184 -0.2235 -0.17438 0.20987 -0.16551 0.45454 
disz 0.23576 -0.0056221 0.35248 0.19638 -0.028942 0.31567 0.017033 -0.10975 0.12359 -0.18447 0.35949 0.33018 0.23154 -0.02667 -0.17073 -0.29109 0.21236 0.04241 0.063302 -0.17528 0.23265 0.037774 0.0072789 0.18718 -0.25919 0.021346 -0.061992 -0.42144 -0.015157 0.21993 0.15499 0.21463 -0.097216 -0.26668 -0.22024 -0.015405 -0.35524 0.14571 -0.15182 0.054888 -0.081434 0.11111 -0.22531 0.04192 0.17273 0.18882 0.032492 -0.039664 0.17959 0.22945 -0.001514 -0.14609 0.4303 -0.11211 -0.041542 -0.079719 0.27296 -0.22004 -0.041085 -0.51239 -0.1334 -0.1772 -0.12357 -0.23058 -0.28568 0.37583 0.032835 -0.076108 0.0727 0.17022 -0.1972 0.21708 0.35187 -0.080645 -0.40166 0.29234 0.13478 0.013235 -0.071207 0.085928 0.17578 0.0093016 0.12289 0.5479 0.071925 0.26423 0.29412 0.085601 -0.096481 0.098781 -0.093673 -0.20363 0.22257 -0.3279 -0.13013 -0.22638 -0.13214 0.45815 -0.27687 0.37123 
2 0.2039 -0.17583 0.22459 0.3024 0.067592 0.059388 0.080371 0.019413 -0.030836 0.15043 0.1215 0.4349 0.081801 0.065068 -0.036157 0.10657 0.32841 -0.05295 -0.01345 0.19006 0.42788 -0.14038 -0.029736 0.014838 -0.081421 0.12442 -0.031035 0.072994 0.048312 0.41857 0.23469 0.30346 -0.064026 -0.26384 0.049458 0.1679 0.015599 0.16938 0.046723 0.33084 -0.32059 -0.1185 -0.32861 0.23984 -0.14513 0.17179 0.092727 -0.22219 0.27038 0.45401 -0.16409 -0.22743 0.34913 0.25686 -0.0047271 0.010272 0.24587 0.12903 -0.16424 -0.34639 -0.14083 -0.0039089 -0.21909 0.1295 -0.05085 -0.021983 0.078425 -0.090937 0.2289 -0.019362 0.0095038 0.068307 -0.00056314 0.037154 -0.25493 0.11678 -0.26799 -0.35298 -0.33158 0.072244 0.24142 0.0089888 0.26453 0.36008 -0.073782 -0.06321 -0.0063554 0.14273 -0.030082 -0.041137 -0.086326 -0.28791 0.073291 -0.10399 -0.091703 -0.21384 -0.12647 0.089271 -0.048797 -0.0098628 
2- -0.10956 0.21027 0.0031629 -0.25376 -0.10824 0.13007 0.3182 -0.0682 0.14797 0.15368 0.22111 0.3985 0.17803 -0.20884 -0.28703 0.051971 0.17627 -0.16799 -0.21839 0.17949 0.077075 -0.074748 -0.18653 -0.34752 0.052193 -0.1943 0.20615 0.21842 0.26975 0.41828 0.36078 0.073564 -0.085198 -0.46722 0.030837 0.37219 0.14307 0.1243 0.46302 0.081912 -0.099016 -0.26911 -0.16932 0.14868 0.37576 0.24954 -0.0087245 0.10778 0.12453 0.34376 -0.1451 0.23536 0.52971 0.1422 0.0074357 0.050811 -0.092756 0.28142 -0.17528 0.092325 -0.07456 0.23161 0.011963 0.049827 0.19122 0.27354 0.024311 -0.43958 0.030276 0.05828 0.032321 0.046979 -0.13077 -0.082929 -0.082842 0.26061 -0.3019 -0.3228 -0.023723 -0.22006 0.14124 -0.0020268 -0.17876 0.27616 0.022928 -0.096441 -0.015982 -0.20901 0.13776 0.18983 -0.22056 0.060463 -0.14693 0.017336 -0.030524 -0.04473 -0.11566 -0.054595 -0.063099 -0.014515 
} -0.34072 0.19351 0.19647 0.088452 -0.15971 -0.11819 -0.31055 -0.34519 -0.11679 0.098167 0.15253 0.22471 -0.02402 0.10381 -0.28563 -0.08148 -0.037223 -0.087681 -0.44277 0.12363 0.019422 0.060914 -0.12277 -0.064605 -0.23174 0.03347 0.43554 -0.16144 0.78851 0.097684 -0.35249 0.286 -0.029069 -0.29205 -0.38059 0.089433 -0.25422 0.34471 0.50634 0.098152 -0.019664 -0.016006 -0.21726 -0.12563 0.32624 0.21206 0.21744 -0.30033 0.012349 0.18458 -0.22982 -0.043806 0.074588 -0.15211 -0.25573 0.50334 0.045833 -0.44514 -0.17939 -0.086417 0.069648 -0.20497 -0.10894 0.012526 0.11098 0.32893 0.20051 0.10992 0.18046 0.15473 0.21066 0.23868 0.011965 -0.36629 -0.047207 0.00045061 -0.13545 0.093508 0.33366 -0.28526 0.15662 -0.31145 0.065705 0.19849 -0.26841 -0.2552 0.15511 -0.015403 -0.041487 0.023481 -0.39832 -0.11505 -0.014545 0.021593 0.25905 -0.12267 -0.63586 -0.028522 0.16014 0.058595 
3 0.047252 -0.1308 0.047371 0.42275 -0.011142 0.057347 -0.32653 0.60241 -0.046553 0.09677 0.1411 0.33621 -0.17695 -0.23776 -0.36612 0.17027 0.17909 -0.19132 -0.14303 0.21403 0.13014 0.11888 0.054282 0.028872 0.090457 0.057953 0.20635 -0.14923 0.12337 0.19574 0.11383 0.37667 -0.18103 -0.32173 -0.20895 -0.0031543 0.04404 -0.29677 -0.051768 0.54154 -0.32059 0.0099652 -0.021606 -0.056666 0.0033076 0.26432 -0.095844 0.55389 0.42876 0.3025 -0.0016977 -0.10605 0.23635 -0.080748 0.33613 0.10325 0.094104 -0.25444 -0.117 -0.18202 0.27382 -0.056231 -0.12694 0.034354 0.088207 0.23915 0.071466 -0.25444 -0.12812 0.17281 -0.1534 -0.35263 0.45547 -0.1381 -0.14541 -0.027394 0.09369 -0.21875 -0.0058469 0.2673 0.18544 0.17188 0.11991 0.25749 -0.22142 0.15102 -0.1594 -0.0015939 0.051343 0.092397 -0.061339 0.25292 0.18894 0.031661 -0.07967 -0.1862 -0.29062 0.29236 -0.1622 0.049353 
▁1( 0.37317 -0.010845 0.17994 0.12751 -0.060988 0.49 -0.044631 0.019302 0.22346 -0.18119 -0.05642 0.02273 0.0032441 -0.041662 -0.45733 -0.23516 0.42002 -0.2241 0.23931 -0.20677 0.26981 0.16004 0.21899 0.17361 -0.19391 0.19134 -0.052382 -0.13572 0.24174 0.10573 0.24197 0.14129 0.12983 -0.32468 -0.044548 0.084452 0.17213 0.12179 -0.3804 0.14217 -0.15523 -0.14187 -0.15879 0.094256 -0.1278 0.14967 0.19838 -0.19383 0.1436 0.056885 0.057759 -0.24231 0.21568 0.144 0.091791 0.24337 0.24162 -0.14415 -0.26282 -0.39689 -0.087771 0.21669 -0.18839 -0.096511 -0.3502 0.36263 0.19777 -0.01073 -0.067419 0.17475 -0.066768 0.33132 0.31183 -0.066067 -0.31168 0.43185 0.18412 -0.19318 -0.16564 0.050087 -0.30713 0.33918 0.17439 0.25065 -0.13183 0.21274 0.043015 0.032585 -0.081122 0.069319 0.037778 -0.020204 0.25144 -0.2048 -0.26142 -0.19399 -0.18241 0.19302 -0.23101 0.38593 
d 0.062627 -0.12227 0.015565 0.29064 -0.28831 -0.48271 -0.40675 -0.26075 -0.13074 -0.15596 -0.14148 0.27865 0.013496 0.30967 -0.2324 0.40004 -0.070291 -0.16376 -0.10461 0.38632 0.12048 0.14283 0.020739 0.094321 -0.07605 0.11342 -0.16278 0.28236 0.52644 0.24771 0.094162 -0.010221 -0.069094 -0.42897 -0.16232 0.29269 -0.010419 0.24609 -0.11504 0.18505 -0.0010114 -0.4131 -0.1272 -0.39618 0.23926 0.22074 -0.29437 -0.27383 -0.018207 -0.10137 -0.07365 0.020412 -0.3258 -0.048208 -0.063515 0.55193 0.18511 -0.53146 -0.14762 0.045395 0.13426 -0.30427 -0.48874 -0.10944 0.059893 0.40508 0.42947 0.32353 0.0037794 0.094106 0.24734 0.52337 0.16014 -0.010251 0.092139 0.22723 -0.2053 -0.13824 0.48881 -0.24108 0.098686 -0.098817 0.045885 0.32443 -0.30541 -0.31871 -0.16803 -0.13401 -0.00389 0.19533 -0.43753 -0.064919 -0.036344 0.057258 0.12351 0.12156 -0.13513 0.21504 0.03335 -0.17167 
c 0.18648 0.35011 0.29847 0.082028 -0.10033 0.59294 -0.21894 -0.24349 0.32663 -0.29941 -0.037529 -0.13703 0.21089 0.091656 -0.35784 0.026627 0.54004 -0.35222 0.3186 0.013053 0.25591 -0.040434 0.22383 -0.04278 -0.42934 0.23615 -0.079176 -0.30435 0.69243 0.10356 0.14213 0.54604 -0.097686 -0.19006 -0.26033 0.58041 0.40073 0.3401 -0.29836 0.3735 -0.035152 -0.1171 -0.17588 -0.46802 -0.25669 -0.025524 0.11287 0.0027051 0.11404 0.12956 -0.32007 -0.58185 0.054938 -0.06435 0.17058 0.21892 0.31249 0.040234 -0.044065 -0.32228 -0.10628 0.097746 -0.20117 -0.43165 -0.12011 0.25992 0.0031051 0.12284 -0.17428 0.26774 -0.20583 0.30458 0.1037 -0.037092 -0.24645 0.099872 0.16681 -0.20562 -0.28003 0.2219 -0.48243 0.42041 0.041142 -0.072354 -0.035904 -0.037244 -0.041272 0.28 -0.22489 -0.10682 -0.046568 0.099857 0.2085 0.30366 0.31637 -0.16603 -0.13833 0.3261 -0.010321 0.51019 
@ 0.11118 0.3497 0.40836 -0.044999 -0.069484 0.55735 -0.00099581 -0.25975 0.29281 -0.29684 0.10482 -0.014706 0.18514 0.20183 -0.28786 -0.10612 0.51243 -0.37627 0.28048 -0.039855 0.31263 0.0036808 0.22519 0.032206 -0.39917 0.151 0.047854 -0.32374 0.69029 0.062304 0.12671 0.51269 -0.20651 -0.013273 -0.27444 0.64412 0.2491 0.4898 -0.30338 0.28208 -0.053515 -0.12191 -0.19131 -0.31121 -0.12939 0.05018 0.21526 0.073646 0.17218 0.083549 -0.31229 -0.46597 0.12831 0.044308 0.1761 0.13048 0.1823 0.053659 -0.033559 -0.35223 -0.15326 0.069321 -0.25647 -0.4358 -0.21499 0.33845 -0.13214 0.12984 -0.11299 0.20102 -0.18016 0.22727 0.12976 -0.15025 -0.27389 0.22099 0.10891 -0.024965 -0.28152 0.18609 -0.46391 0.45288 0.060501 0.034623 0.069163 -0.11755 -0.036276 0.46661 -0.20553 -0.18732 -0.13142 0.11143 0.16659 0.16532 0.2391 -0.14566 -0.16663 0.39294 -0.044757 0.51453 
u 0.22301 0.053416 -0.055077 0.10348 -0.08855 0.3539 0.30535 -0.24849 -0.1067 -0.36184 0.19844 0.34157 0.29812 -0.10561 -0.06762 -0.23462 0.33237 -0.10034 -0.034686 -0.29925 0.017479 0.088402 0.038494 0.20087 -0.27719 0.076558 -0.022296 -0.46297 0.19417 0.050084 0.3418 0.062839 -0.028785 -0.37307 0.090487 -0.067118 -0.028464 0.52065 -0.021114 0.17158 0.031472 -0.022755 -0.12247 -0.055371 -0.14514 0.24487 -0.15866 -0.11696 -0.045186 -0.018354 -0.19413 -0.14855 0.11162 -0.1174 -0.34154 0.045169 -0.029385 0.072116 -0.36634 -0.38951 -0.11075 -0.017568 -0.1474 0.0079274 -0.29202 0.33362 0.20958 -0.099287 -0.3215 0.084456 -0.22087 0.36576 0.02011 0.12243 -0.34127 0.17123 -0.10746 -0.37468 -0.23946 -0.012423 0.16473 0.16083 0.052151 -0.038507 -0.078542 0.37532 0.24656 0.024871 0.20362 0.15176 -0.19391 -0.11082 0.20185 0.089177 -0.12393 -0.1742 -0.079318 0.27124 -0.2069 0.053957 
asz 0.087549 0.4365 0.12605 0.074653 -0.034514 0.51342 -0.068162 -0.22139 0.10597 -0.10885 0.0045405 -0.036351 0.35925 -0.17221 -0.29488 -0.077485 0.4109 -0.17357 0.20214 0.035618 0.1398 -0.066806 0.033699 -0.078515 -0.38491 0.06763 0.064164 -0.33395 0.47868 0.24632 -0.029094 0.46046 -0.12779 -0.03442 -0.24166 0.33023 0.35369 0.57049 -0.059837 0.24487 0.033777 -0.18489 -0.030498 -0.28556 -0.065387 0.051006 0.20343 0.023473 0.042944 0.12295 -0.33115 -0.29531 0.30297 -0.028057 0.052293 0.10788 -0.024123 -0.065118 -0.14498 -0.34858 -0.13226 -0.28667 0.064834 -0.27395 -0.1137 0.31993 -0.34926 -0.16657 -0.066752 0.19688 -0.089223 0.15779 0.19598 -0.15314 -0.31317 0.032296 0.18736 -0.0017562 -0.10068 0.028927 -0.090905 0.391 0.094732 -0.060696 -0.073644 0.02601 0.18229 0.14146 -0.12886 0.017706 -0.14372 0.0076989 0.40256 0.23693 0.12451 -0.041935 -0.10675 0.27386 -0.088036 0.46319 
a 0.05985 -0.010337 0.08576 -0.073849 -0.047783 -0.14172 -0.26546 -0.29585 -0.077548 -0.12817 0.03042 0.2136 -0.057008 -0.12207 -0.0084257 0.22536 0.15264 -0.14262 0.067581 0.0048723 0.21064 -0.050634 -0.21876 0.10194 -0.13997 -0.13064 -0.39644 0.17983 0.16394 -0.085369 0.068825 -0.09267 -0.031194 -0.31567 0.068597 -0.033337 0.10805 0.075068 0.0584 0.25075 -0.089004 0.021872 0.022855 0.18787 0.1117 0.40779 -0.45791 -0.06318 0.27521 -0.022673 -0.44106 -0.13054 -0.1354 0.1522 -0.064496 0.41697 0.2696 -0.14607 -0.11293 0.025352 -0.29316 0.029715 -0.091998 0.15391 0.26642 0.27308 0.60544 -0.0091705 -0.17954 0.17878 0.088279 0.055838 -0.18432 0.049048 -0.018112 0.12853 -0.592 -0.027387 0.14438 0.30972 0.13259 0.48929 0.28246 -0.26281 0.17033 -0.055581 -0.039368 -0.055398 0.079841 0.038256 -0.055326 -0.1736 0.28232 0.2522 -0.6174 -0.20875 -0.11051 0.13346 -0.14314 -0.026107 
▁2( 0.3611 -0.036349 0.23711 0.30154 -0.15293 0.51784 0.10125 0.1679 0.31307 -0.20533 0.083462 0.073483 0.078846 0.057473 -0.36217 -0.32145 0.2598 -0.11212 0.22881 -0.18659 0.16243 0.30291 0.24945 0.19347 -0.20475 0.32488 -0.05749 -0.08962 0.22065 0.11401 0.30755 0.24338 0.12107 -0.42797 0.027756 0.042085 0.10491 0.041885 -0.30509 0.14794 -0.147 -0.14989 -0.12169 0.089494 -0.32906 0.15454 0.14105 -0.15435 0.19161 0.15825 0.054008 -0.26544 0.22486 0.16284 0.064891 0.15768 0.23278 -0.10893 -0.19082 -0.40041 -0.066798 0.17008 -0.16524 -0.20836 -0.44526 0.4045 0.23126 0.06097 -0.076921 0.11144 -0.11686 0.2868 0.41956 -0.014945 -0.34355 0.39775 0.10764 -0.14234 -0.16309 0.12727 -0.34255 0.40618 0.13466 0.25678 -0.061322 0.31264 0.03355 0.062666 -0.051845 0.08309 0.042872 -0.10616 0.24489 -0.10363 -0.34017 -0.2157 -0.20539 0.21698 -0.32721 0.46123 
3- -0.41353 0.50818 0.45168 0.12192 -0.58011 0.15498 -0.015581 0.18739 0.051511 0.286 0.055278 -0.10338 0.24772 -0.23703 0.018757 0.072521 0.20378 0.20357 -0.0066127 0.12279 0.19069 -0.20859 -0.39314 -0.37474 -0.05981 -0.12138 0.077065 -0.53603 0.39476 0.27498 0.0039558 0.51457 -0.45057 -0.22989 -0.066548 0.032679 -0.36754 0.015596 0.2938 0.24452 -0.26241 -0.36694 -0.1843 0.12615 0.58696 0.15614 0.12616 0.32389 0.13373 0.35341 -0.29102 0.25405 0.29787 0.078374 0.10331 -0.25965 -0.18708 0.25768 0.0444 0.19123 0.051583 -0.045534 -0.031016 0.026569 0.11608 0.32353 0.17837 -0.39679 -0.41949 0.44372 -0.039535 0.075871 0.11519 -0.49811 -0.32477 0.0053126 0.057842 0.10496 0.21823 0.12961 -0.078978 0.15969 0.014735 0.31144 0.13483 0.23881 0.11834 -0.30346 -0.042145 0.21954 -0.29002 0.22431 0.13948 -0.12763 -0.20761 0.027201 -0.29559 0.17327 -0.10038 -0.067629 
▁_ -0.54967 0.18438 0.18211 -0.33263 -0.34826 -0.092668 0.1292 -0.029839 0.093155 -0.35516 -0.090408 0.19231 0.53104 -0.11669 -0.22458 -0.029885 0.45419 -0.11788 0.060258 0.20197 0.11641 -0.16038 0.02556 -0.11714 0.036127 -0.17015 -0.0052222 -0.2596 0.01584 0.0052531 0.2042 0.12236 0.22829 -0.019095 0.081634 0.023431 -0.057814 0.52833 0.56861 0.2221 -0.16696 -0.25212 -0.63307 0.10868 0.38062 -0.055619 0.36556 -0.23952 0.18887 -0.065515 -0.76171 -0.57537 0.23248 0.075566 0.0093005 0.34218 -0.11133 -0.16165 0.10122 0.0052621 0.17384 0.36773 -0.019334 -0.25607 -0.19903 0.31794 0.0026879 -0.12935 -0.48799 -0.24023 -0.3891 -0.11072 0.036133 -0.22251 -0.46438 -0.18759 -0.18224 -0.23804 0.013747 -0.042846 -0.20135 0.011941 -0.041881 -0.085997 -0.43511 0.11807 -0.081655 -0.16051 0.27093 -0.237 -0.064553 -0.29525 0.63946 0.25897 0.19999 -0.1679 0.070249 0.0092178 -0.16119 0.012299 
▁{ -0.11899 -0.029948 -0.052916 0.12133 -0.045337 -0.39483 0.18815 -0.45893 -0.27529 -0.18339 -0.20486 0.35899 0.17792 0.21786 -0.23108 0.17669 -0.040794 0.070744 -0.3786 0.22526 0.022963 0.1441 -0.14993 -0.07496 -0.14825 0.060063 0.34039 -0.15524 0.473 -0.029414 0.020214 0.099612 0.18182 -0.29941 -0.31359 -0.16928 0.031933 0.30715 0.43405 -0.13463 0.031843 -0.32436 -0.15149 -0.28035 0.15182 0.13104 0.2385 -0.10554 0.20107 0.13912 -0.054277 0.20545 0.010285 0.036898 -0.22231 0.5244 0.13172 -0.47736 -0.17376 -0.088069 0.17286 -0.09734 -0.20546 -0.086955 -0.021666 0.59184 0.49718 -0.12955 0.10559 0.060134 0.24699 0.14754 -0.12907 -0.22669 -0.22082 -0.0060275 -0.43863 0.060646 0.31109 -0.3395 -0.090554 -0.22122 0.21959 0.32907 -0.24915 0.12112 0.051708 -0.15199 0.13774 0.35791 -0.6742 -0.12884 0.14254 0.29171 0.41423 -0.096445 -0.31498 0.0020702 0.035704 0.13927 
na -0.1093 0.070444 0.04203 -0.36754 -0.15601 0.0023586 0.14758 -0.42095 -0.1352 -0.10833 0.13639 0.088574 -0.067008 -0.17266 0.22147 0.31712 0.1337 -0.082718 -0.17187 -0.0224 -0.14786 -0.18056 -0.24154 -0.021213 -0.28031 -0.30343 0.11363 0.027179 -0.046419 0.23377 0.27611 0.32422 -0.1703 -0.28786 0.16203 -0.19319 -0.042562 0.4484 0.33991 0.31095 0.070014 -0.42917 0.051182 0.2549 0.1741 0.055691 -0.13476 0.002155 0.044943 0.11307 -0.34469 -0.43422 -0.18433 -0.30922 -0.36021 -0.058764 0.064081 0.14373 0.010775 0.0087237 0.048882 0.06142 0.089128 -0.13702 0.22283 0.53855 -0.050833 -0.36654 -0.062443 0.06111 -0.28736 -0.20928 0.13162 0.1638 -0.37397 0.02889 -0.31071 0.17016 0.28694 0.15468 0.052658 0.025528 0.014073 0.26885 -0.0039068 -0.070242 -0.17086 -0.053701 -0.050603 -0.036512 -0.16681 -0.18098 0.42486 -0.015112 -0.1703 -0.27885 -0.17847 -0.0045065 -0.16694 -0.10136 
▁a -0.23555 0.23737 0.2281 -0.094653 -0.13482 -0.12291 -0.0047542 0.04926 -0.21244 0.12899 0.095171 0.18854 -0.09181 -0.11992 0.090026 0.13513 -0.0194 -0.15969 0.00052752 0.25977 0.01595 0.032485 -0.061432 -0.088337 -0.39257 -0.21186 -0.029454 -0.14358 0.11421 0.16855 0.28771 -0.18304 -0.28787 -0.13471 -0.091749 0.12602 -0.037667 0.092261 0.067558 -0.0068354 0.21443 -0.29624 -0.41036 0.12003 0.11032 0.10391 -0.38743 0.15508 0.059653 0.11524 -0.61218 0.14331 0.036934 0.051326 0.066719 0.34225 0.011889 -0.21567 -0.18331 -0.2952 -0.16541 0.30028 -0.11714 0.14864 0.084342 0.40306 0.45475 -0.24132 -0.23841 0.018664 -0.18921 0.1039 -0.15396 -0.033287 -0.28783 0.3236 -0.20452 -0.093014 -0.031722 0.10818 0.19008 0.33358 -0.04422 0.0022 -0.10417 0.36099 -0.0065378 -0.39234 0.15433 -0.14872 0.13091 0.3113 0.27728 0.1884 -0.1635 -0.027391 0.02601 0.044874 -0.17472 -0.13961 
_ -0.55469 0.29861 0.13618 -0.22947 -0.50885 -0.007282 -0.058191 -0.12524 0.072298 -0.54995 0.042598 0.079178 0.34599 -0.25118 -0.012162 -0.23105 0.18677 -0.13085 0.061886 0.18447 0.080726 -0.26022 0.079934 -0.059857 -0.0057371 -0.21102 0.071594 -0.33867 -0.081797 0.0057046 0.16559 0.29863 0.13469 -0.12956 -0.077835 0.0074933 -0.2156 0.73542 0.57441 0.19355 -0.084137 -0.10661 -0.62059 0.22114 0.44826 0.084146 0.35234 -0.19186 -0.0038244 0.23718 -0.50686 -0.40533 0.50498 0.079943 -0.25409 0.42033 -0.16153 -0.18195 0.39962 -0.011655 0.075495 0.34261 0.055624 -0.30229 -0.18584 0.45337 -0.15426 -0.18191 -0.38122 -0.16259 -0.30863 -0.040126 -0.027758 -0.16139 -0.56207 -0.21548 -0.23652 -0.20205 0.067129 -0.14191 0.054843 -0.083104 -0.14738 -0.047677 -0.31744 0.055676 -0.02175 -0.1846 0.15988 -0.30957 -0.12987 -0.47976 0.61391 0.23848 0.25889 -0.062225 0.082119 0.096734 0.031872 -0.0015007 
▁3( 0.42094 0.029877 0.19989 0.36556 -0.12989 0.53441 0.19203 0.19587 0.32963 -0.16364 0.25481 0.14125 0.07738 0.071535 -0.34747 -0.2072 0.24337 -0.045917 0.25748 -0.18977 0.16118 0.38776 0.26536 0.11702 -0.14873 0.37801 -0.024049 -0.02116 0.18342 0.098782 0.33745 0.19123 0.10579 -0.48629 0.12757 0.04618 0.055852 -0.0871 -0.29827 0.1073 -0.055584 -0.039721 -0.21204 0.091479 -0.42409 0.22673 0.14512 -0.081828 0.1234 0.24678 0.042245 -0.22019 0.2389 0.051193 0.12707 0.21311 0.24735 -0.12726 -0.20644 -0.42636 0.0038619 0.14601 -0.17256 -0.25856 -0.36532 0.28901 0.19954 0.10917 -0.011482 0.13653 -0.17163 0.27887 0.39623 0.054325 -0.43089 0.55569 0.11115 -0.22171 -0.15998 0.034723 -0.23056 0.41988 0.16312 0.27181 -0.11545 0.34035 0.074399 0.068898 -0.053719 0.084291 0.037111 -0.1323 0.26687 -0.16828 -0.243 -0.21077 -0.22294 0.23812 -0.36453 0.57304 
ki -0.24973 0.65409 0.023648 -0.052437 0.044765 0.017554 0.13315 -0.38474 0.11332 0.24386 0.38604 0.14973 0.031235 0.010437 0.0069467 -0.11999 0.13144 -0.42627 -0.41486 0.22941 0.0021667 0.015514 0.026112 -0.29219 -0.30359 -0.14979 0.19089 0.25813 0.60416 0.023977 0.13133 -0.1847 -0.024468 -0.067604 -0.048885 -0.044672 -0.18006 0.59785 0.61334 0.1853 -0.047652 -0.19827 -0.22502 0.135 0.42036 0.23368 -0.22172 0.16143 -0.016063 0.17274 -0.28299 0.0029605 0.078333 -0.19553 -0.38494 0.27998 -0.16155 -0.22188 -0.48037 -0.16215 0.012994 -0.16379 -0.31871 0.26344 0.22887 -0.048081 0.38958 0.21813 -0.049173 -0.05978 0.13942 -0.57747 0.40693 0.2918 0.055087 0.17929 0.08162 -0.016204 0.50764 0.064495 -0.12902 0.095276 0.22082 0.1047 -0.27885 -0.3125 -0.25527 -0.023014 0.11525 -0.43187 -0.070282 -0.082779 -0.044086 -0.19364 0.084095 -0.017496 -0.77385 -0.16541 -0.20239 -0.39598 
4 0.43931 -0.13536 0.029305 0.095019 -0.1237 0.052542 -0.059001 0.063426 0.056462 -0.25937 0.17372 0.51168 -0.27563 -0.52234 0.055008 0.42408 -0.12066 -0.31332 -0.47788 0.43181 0.1065 -0.29652 0.06164 0.31841 0.21317 0.17777 0.081037 -0.13728 0.0085516 0.014895 -0.11284 0.096322 0.11436 -0.31374 0.12631 0.10474 0.021876 0.43265 0.094155 0.19181 0.094705 0.032771 -0.066099 -0.61078 -0.025435 0.58443 0.18099 -0.090784 0.45928 -0.10925 -0.24668 -0.38534 0.21032 -0.14364 -0.065308 0.13212 0.30832 -0.092212 -0.39572 0.083086 0.28916 0.062901 -0.49023 0.28111 -0.43887 0.46813 0.11555 0.055954 0.052203 0.34927 0.32607 -0.088042 0.2566 0.11948 0.21185 0.35109 0.085543 -0.023937 -0.22883 0.082899 0.36731 0.060717 0.094614 0.31729 0.049344 0.17485 -0.0061007 0.16227 0.15586 -0.0023386 -0.21924 0.60579 0.40145 -0.27908 -0.23857 -0.66719 -0.37772 0.30036 -0.33607 -0.24977 
▁( 0.36951 0.030709 0.11726 0.15603 -0.19239 0.37227 -0.044334 -0.021973 0.16625 -0.2162 -0.028159 0.073665 0.030862 -0.02467 -0.41185 -0.30454 0.2408 -0.093792 0.39675 -0.029235 0.39192 0.12378 0.14125 0.020858 -0.19517 0.10759 -0.0006831 -0.2067 0.20213 0.038131 0.25857 0.090305 0.14702 -0.19708 0.061402 0.23324 0.31185 0.010346 -0.25499 0.061506 -0.17132 -0.3303 0.058907 0.055573 -0.060893 0.061445 0.36215 -0.042473 0.29615 0.23137 -0.078978 -0.089135 0.10764 0.11161 0.085181 0.27529 0.24783 -0.10422 -0.1509 -0.27 -0.19361 0.14376 -0.1733 -0.16651 -0.39317 0.29471 0.012176 -0.063465 0.10823 0.25111 0.07167 0.28186 0.21435 -0.1941 -0.44449 0.36841 0.23822 -0.23859 0.0067577 0.11145 -0.39554 0.29144 0.23908 0.33496 -0.052881 0.18468 0.057594 0.079987 -0.12161 0.11155 -0.05945 -0.017938 0.19975 -0.11255 -0.13082 -0.11168 -0.48385 0.081049 -0.19724 0.5282 
▁u -0.26541 -0.2309 0.092868 -0.33191 0.13864 0.038013 0.014568 -0.24625 -0.1936 -0.33565 0.26233 0.33835 -0.036554 -0.21746 0.012636 0.0010681 0.012762 -0.34111 -0.028105 -0.056699 -0.031308 0.025695 -0.34792 0.10627 -0.38232 -0.021429 -0.18491 -0.31997 0.05957 0.0089557 0.28302 -0.23185 -0.028931 -0.31324 0.10098 -0.032962 -0.26358 0.28235 -0.041157 0.099777 0.15165 -0.11246 -0.44607 -0.3625 0.14379 0.28296 -0.093233 0.075165 0.042904 -0.038865 -0.043811 0.034513 0.34561 -0.105 -0.25213 0.059291 0.10976 -0.002133 -0.183 -0.39045 0.14191 0.25696 -0.31799 0.24983 0.018042 0.57142 0.039463 -0.090161 -0.11978 0.054016 -0.039421 0.19111 0.060462 0.20314 -0.19925 0.39472 0.01149 -0.35729 -0.10718 0.16326 0.35433 -0.034546 0.076724 0.11913 -0.074838 0.18585 0.26837 -0.22049 0.40392 -0.11503 -0.11783 0.08306 0.026891 -0.0099972 -0.13696 -0.24363 -0.24595 0.19142 -0.45533 -0.19417 
▁[...] 0.049568 -0.047701 -0.20995 0.13898 -0.24862 -0.12175 -0.053379 0.17432 0.033967 -0.1285 0.21991 0.048849 0.0050909 -0.15431 -0.057795 0.2069 0.20566 -0.1037 0.30364 -0.12815 0.16296 -0.31354 -0.16049 0.13149 0.042954 -0.24551 -0.13695 -0.15251 -0.088879 0.20161 0.17923 -0.24638 0.23676 -0.29166 -0.081967 0.11299 0.39651 0.14375 -0.069407 0.22155 -0.092394 -0.14879 -0.13052 0.088554 -0.1707 -0.068317 0.031935 -0.13522 -0.10223 0.052246 -0.13299 -0.083202 -0.081434 -0.34367 0.17842 0.54095 0.08707 -0.18512 -0.46421 -0.072911 0.14272 -0.010084 -0.18301 0.019507 0.098963 0.19098 0.52914 -0.19647 -0.11917 0.0079682 -0.17366 0.13184 0.10628 0.21833 -0.36242 0.17117 -0.16159 -0.23091 0.0013821 0.26069 -0.21275 0.25451 0.050603 0.047198 0.013506 -0.095174 0.051572 0.44962 -0.10322 0.16995 0.12729 -0.25035 0.026165 -0.0032479 -0.14598 -0.15511 -0.26683 -0.018017 -0.071837 0.22653 
ma -0.31222 0.11563 0.57146 -0.21047 -0.014526 -0.068696 -0.015206 -0.28957 0.049525 0.052309 0.28274 0.054928 0.0062502 -0.61102 -0.0093438 0.40117 -0.087012 -0.16757 -0.012044 0.18305 -0.060004 -0.19897 0.15966 -0.13384 -0.35699 0.01048 -0.091222 0.17817 0.17848 -0.052208 0.31746 0.16994 0.12322 -0.25898 -0.10447 0.11912 -0.038947 0.56423 0.51573 0.37037 -0.011047 -0.061427 -0.21661 -0.0073297 0.35095 -0.037273 -0.24642 -0.19278 0.026568 0.19288 -0.32198 0.066288 -0.28774 -0.35593 -0.10179 0.19746 -0.0018158 -0.061753 -0.38284 0.095506 0.020719 0.33315 0.02299 -0.34064 0.39883 0.12608 -0.12739 0.014629 -0.3597 0.069083 -0.12798 -0.32892 -0.18864 -0.13761 -0.14263 -0.094589 -0.26043 -0.25561 0.17284 -0.22759 0.35709 -0.10317 0.070487 0.27034 0.051536 -0.058974 0.00019564 -0.16017 -0.2886 0.042273 0.091561 -0.15968 0.4885 -0.31612 -0.22516 0.16895 -0.17894 -0.069495 -0.21096 -0.10109 
2) 0.48792 0.24733 0.086228 0.50613 -0.28176 0.23469 -0.085288 -0.07286 0.32977 0.069812 0.34588 0.17485 -0.014865 -0.055196 -0.34907 -0.31079 0.21181 -0.31993 0.18649 -0.17032 0.31425 0.063574 0.047508 0.29425 -0.0073853 -0.024863 0.15593 -0.27668 0.25431 -0.014156 0.40276 0.15985 -0.46617 -0.65615 -0.0084887 -0.087248 -0.017227 -0.12228 0.096485 -0.10562 0.38246 0.21482 -0.34249 -0.2565 0.086368 0.14657 0.087993 0.17645 0.065503 0.33022 0.32602 -0.26343 0.51831 0.022684 0.02605 0.18343 0.32152 -0.090998 -0.27929 0.0026214 -0.25322 -0.0043445 0.062636 -0.54096 -0.50118 0.53412 -0.13291 -0.035989 0.13672 0.61527 -0.15975 0.11032 0.065444 0.34984 -0.57891 0.35757 0.25529 -0.22878 0.080789 -0.091604 0.094986 0.42763 -0.015417 0.15089 -0.21555 0.66371 0.40477 0.021789 -0.02129 0.20526 -0.16144 0.072067 0.13826 -0.15159 0.14211 -0.11556 -0.42298 0.051165 -0.29292 0.95579 
ta -0.074226 0.17685 0.03034 0.1808 -0.096498 -0.29008 -0.079049 -0.22872 0.083417 0.17591 0.57268 0.25564 0.12079 -0.4487 -0.18138 0.026658 0.0047084 0.027562 -0.30587 -0.17641 -0.057877 0.22257 -0.20415 0.0064403 -0.23787 -0.43485 0.19693 -0.12453 0.47444 0.071195 0.102 -0.18019 -0.44806 0.039645 0.087462 0.16879 0.30414 -0.16889 0.04571 -0.15807 0.025871 0.15671 -0.47627 -0.11391 0.39511 0.20087 -0.38213 0.21242 0.094016 0.4584 -0.098613 -0.083366 0.2501 -0.14016 -0.2183 0.26665 0.20508 -0.054223 -0.089011 0.24326 -0.2288 0.026615 -0.0025215 -0.16265 -0.10894 0.3223 -0.16811 -0.32073 -0.12208 0.30315 0.039527 -0.1673 0.20529 -0.11228 -0.25141 0.17391 -0.46311 -0.234 0.0026648 0.19159 0.099382 0.20868 0.012769 0.27028 -0.012324 0.51002 -0.080934 -0.12574 -0.050521 -0.18607 -0.14987 -0.036598 0.27036 0.099339 0.15985 -0.10901 0.087457 0.015273 0.014469 -0.42523 
gesz 0.11993 0.2372 -0.39332 0.59195 -0.05664 0.16364 -0.015817 -0.42519 -0.052005 -0.048997 0.050821 0.3417 -0.017476 -0.15042 -0.12898 -0.17495 -0.049015 -0.1159 -0.38405 -0.23908 0.54055 0.23077 -0.1114 0.42611 0.037518 0.33985 -0.14813 -0.70141 0.48261 -0.18198 0.19173 0.61642 -0.2097 -0.22802 0.15406 -0.12801 0.042412 0.48516 0.2224 -0.33313 0.083764 -0.15308 -0.12069 -0.2042 -0.095156 0.34846 0.38883 -0.047071 -0.2031 -0.018534 -0.15687 0.14983 0.24202 -0.46671 0.13027 0.079505 -0.09588 0.12371 -0.43526 0.022521 -0.1297 0.0019497 0.26651 -0.134 -0.16596 0.35479 -0.1026 0.031277 -0.13619 0.076257 -0.15532 0.19597 -0.19856 0.29512 -0.73131 0.21553 -0.11248 -0.44579 -0.0042511 -0.24954 -0.25228 -0.045903 0.58868 0.46951 -0.35439 0.35044 0.42068 0.10308 0.053705 0.16378 -0.40481 -0.10509 0.28709 0.19026 0.18487 -0.12712 -0.37177 0.33327 -0.11656 0.36729 
▁mu 0.087989 0.29158 0.093115 -0.25623 0.05468 -0.3854 0.29485 -0.66057 0.070744 0.47456 0.030592 0.20494 0.10727 -0.15393 -0.058199 -0.15221 -0.3541 -0.53427 -0.010319 0.12242 0.23675 -0.12087 -0.19483 -0.71801 0.044074 -0.11112 -0.2376 0.14394 0.51608 0.10495 -0.10938 0.057955 -0.058988 -0.08139 0.27504 0.19667 -0.36807 0.37445 -0.17177 0.42382 0.28047 -0.51951 -0.15542 -0.37558 0.1365 0.63398 -0.14725 -0.19801 -0.095412 0.83802 0.1443 -0.35375 0.21636 -0.18846 -0.14429 0.32098 -0.059465 -0.5115 -0.43225 0.0030422 0.43085 -0.1349 -0.36888 0.068301 0.18699 0.47327 0.5481 0.1614 -0.024206 -0.21664 0.39444 -0.33599 0.49276 -0.028941 -0.14683 -0.33938 -0.29367 0.060147 0.025402 -0.094366 -0.027094 -0.24913 0.24054 0.12579 -0.10027 -0.55683 -0.079838 -0.033376 0.48756 -0.35647 -0.28818 0.532 -0.51694 -0.33796 -0.14947 -0.38937 -0.28535 0.12903 -0.27434 0.20519 
▁sila -0.19021 -0.34465 0.29039 0.32361 -0.28733 0.35666 -0.26979 0.3632 0.31909 -0.21496 0.11114 0.45091 -0.037829 0.085129 -0.3774 -0.67602 -0.19149 -0.2158 0.36277 -0.057634 0.18095 0.1916 0.37039 -0.25456 -0.43228 -0.14798 0.02847 -0.37334 -0.14149 -0.51795 0.49729 0.39617 0.13377 -0.31759 -0.19127 -0.39821 0.15311 -0.18386 0.16215 0.13321 0.49829 -0.229 -0.46761 -0.14359 0.05292 0.13126 0.049627 0.072796 0.10086 0.77824 0.45281 -0.28167 1.0273 -0.22121 0.16457 -0.059119 0.19686 -0.27018 -0.21698 0.07205 -0.0060388 -0.59543 -0.35424 -0.62501 -0.35041 0.47437 -0.26443 -0.59158 -0.03589 0.38913 0.009374 -0.11918 0.1155 0.43858 -0.36258 0.22798 0.61985 0.058858 0.3904 0.4371 0.21708 -0.070676 0.45267 0.93359 0.033465 0.17547 0.082874 0.029419 -0.19177 0.063181 0.039964 0.034578 0.41469 -0.36443 -0.14864 -0.46479 -0.49168 0.29702 -0.23937 0.76848 
▁i -0.41006 -0.080233 0.21067 0.091795 -0.0297 -0.32239 -0.15801 0.092693 -0.15355 0.15863 0.14536 0.56701 0.31485 -0.10008 0.17592 0.022456 -0.017934 -0.030507 0.0364 0.16518 0.36102 0.14226 -0.31828 -0.50057 -0.19331 0.11909 -0.35855 -0.29764 0.28644 0.16969 0.21456 -0.069713 -0.20103 -0.17226 -0.44787 -0.022499 -0.026071 -0.20648 0.19998 0.34547 0.12673 -0.49273 -0.64507 0.076294 0.064906 -0.39777 -0.32893 0.28539 -0.036892 0.26868 -0.081379 0.099628 0.14747 0.0020676 0.064954 -0.095615 0.085849 -0.31736 0.15375 0.071348 -0.229 0.068622 -0.43873 -0.43768 -0.018542 0.34937 0.17697 -0.13453 -0.58179 0.36539 -0.33168 -0.029306 0.17303 0.059941 -0.25811 0.42305 -0.33747 0.13676 -0.03361 -0.12514 0.019499 -0.15352 0.14923 0.22082 0.20288 0.37307 -0.028609 -0.64387 0.28152 0.025058 0.063967 -0.091748 -0.019419 0.15419 -0.22316 -0.21696 -0.33904 0.26451 -0.16965 0.049943 
ba -0.10755 -0.052641 -0.33423 0.095316 -0.38867 -0.14721 0.14544 0.061786 -0.070816 0.46383 0.11198 -0.13852 0.1205 -0.21797 0.065598 -0.27439 -0.17347 -0.12004 -0.092226 -0.051035 -0.047185 0.02676 -0.14249 -0.35753 -0.0030449 -0.24084 -0.41866 0.03559 0.16184 -0.22665 0.23234 0.18157 -0.29192 -0.15229 0.16168 -0.22438 0.43318 0.10557 -0.048193 0.30095 -0.28452 -0.088263 0.073154 -0.44748 0.2219 0.45818 -0.57538 0.14472 0.2222 -0.053313 -0.23675 -0.38905 0.30164 -0.096168 0.20992 0.41936 -0.14196 -0.019039 0.21287 0.40058 -0.098875 -0.06829 -0.21184 0.26595 0.073638 0.12813 -0.057852 0.023339 -0.020312 -0.10207 0.22815 0.20149 -0.21744 -0.067748 -0.41018 0.44767 -0.52492 -0.43235 0.28298 -0.25908 -0.24567 0.33085 0.045422 0.28294 -0.032679 -0.025758 0.08066 0.02258 -0.29742 0.0053449 0.031872 -0.21357 0.34881 -0.25354 0.24591 -0.27253 -0.41073 0.08976 -0.075885 -0.18201 
▁ur -0.58911 -0.029046 -0.050926 0.042736 -0.48625 -0.0052299 -0.4715 0.38223 0.23736 -0.18673 -0.13218 0.50208 -0.21239 0.14479 -0.019153 0.16842 -0.42321 -0.035146 -0.1582 0.2488 0.090093 0.16924 0.26758 -0.20857 -0.36117 -0.21446 -0.29127 -0.38909 0.57255 -0.16406 0.13529 0.0036458 -0.88455 0.021599 -0.084702 0.43347 0.73536 0.19043 0.1631 -0.24743 -0.10854 -0.17436 0.16115 -0.25585 -0.039604 0.22938 0.47958 0.30765 -0.19001 0.39186 0.20788 0.23246 -0.19258 -0.0045773 0.6371 0.81054 0.39965 -1.0564 -0.24388 0.19029 0.027974 -0.66181 -0.13012 0.099598 -0.22212 0.52481 -0.23918 -0.49902 0.35254 0.23369 0.095601 0.030714 0.36893 0.069321 -0.1601 0.33845 -0.25705 -0.0049213 0.272 -0.43451 -0.32286 0.31917 0.18072 0.56026 -0.15471 0.015527 0.10788 -0.24375 -0.084671 -0.013464 -0.30052 -0.067105 -0.027182 0.036593 0.36178 -0.57945 0.477 -0.036442 -0.13506 -0.085612 
▁[ 0.11928 0.15293 0.026277 0.25365 -0.0145 0.14201 -0.27862 0.31564 -0.08958 -0.25278 0.28157 0.30485 0.47031 -0.11199 -0.06728 0.347 0.23631 -0.11185 0.15048 -0.26989 -0.26646 -0.22552 0.0072437 0.20058 -0.014838 -0.098215 -0.11027 -0.090432 0.049254 -0.085416 -0.00017057 0.14147 -0.13768 0.061559 -0.052822 0.11804 0.27224 0.23536 0.49905 -0.077199 -0.056672 -0.40833 -0.10338 -0.32353 0.1296 -0.10181 -0.16898 -0.35342 -0.090606 -0.0013477 -0.048498 0.069534 0.49133 -0.082719 0.15441 0.3657 0.016206 -0.66071 -0.24364 0.10675 0.0185 0.1886 -0.25676 -0.24988 0.01325 -0.016415 0.60415 -0.14355 -0.39991 -0.3051 -0.33493 0.12334 -0.047633 0.047294 -0.25555 0.25398 -0.25778 -0.016008 0.042684 0.23351 -0.34018 -0.027423 -0.18308 -0.074246 0.22434 -0.09887 0.033944 0.16012 0.22527 0.02002 -0.016892 -0.20916 -0.020326 -0.013593 -0.031685 -0.33238 -0.0028261 -0.065061 -0.37789 0.078419 
▁5( 0.5397 -0.1286 0.15764 0.26603 -0.141 0.52543 0.13891 0.15662 0.3602 -0.29497 0.29261 0.13864 -0.0085198 0.058788 -0.31924 -0.3371 0.23496 0.096627 0.15225 -0.28449 0.12462 0.28579 0.32776 0.2507 -0.20933 0.44751 -0.043235 -0.22349 0.12415 -0.052693 0.4257 0.22412 0.10874 -0.65042 0.1899 -0.0015692 0.005576 -0.16652 -0.27183 0.087441 -0.16783 -0.1238 -0.19183 0.018598 -0.2118 0.11985 0.16889 0.03716 0.094021 0.25898 -0.029682 -0.29161 0.27024 0.028435 0.027785 0.14308 0.22376 -0.1048 -0.15037 -0.40113 -0.13705 0.22217 -0.13422 -0.35691 -0.14886 0.35312 0.19007 -0.058821 -0.13576 0.21812 -0.22067 0.16647 0.34771 0.11241 -0.38739 0.54776 0.13747 -0.11978 -0.17461 0.1575 -0.27375 0.34726 0.25806 0.42321 -0.22456 0.39755 0.079385 -0.018507 -0.062322 0.21548 -0.0035574 -0.12471 0.37594 -0.15588 -0.28828 -0.17199 -0.2143 0.30178 -0.41402 0.48008 
{ -0.86088 0.5883 0.15344 0.15376 -0.18531 0.21594 -0.32527 -0.31187 0.2176 0.14975 0.48736 0.37648 0.45112 -0.15303 0.066837 -0.38519 0.095689 -0.11066 -0.76598 0.37281 0.13219 0.52821 -0.30305 -0.329 -0.21243 -0.22223 0.26295 -0.053412 0.62735 0.092683 -0.50455 0.52723 0.07831 0.43167 0.089647 0.070082 0.21411 0.52605 0.49565 0.11785 -0.19889 0.04845 -0.073005 0.46881 0.27556 -0.0021188 0.0074452 0.050993 -0.15669 0.019023 -0.43003 -0.094968 -0.086129 0.06135 -0.4863 0.28467 -0.31984 -0.36601 -0.44902 -0.38982 -0.13415 -0.27486 0.0099151 0.25614 0.45495 0.26208 0.57317 -0.19942 0.1831 -0.1571 0.17276 -0.41724 0.39077 0.07116 -0.0021212 0.21216 0.59107 0.098292 0.43729 -0.12183 -0.13786 0.45209 0.14463 0.19773 -0.30754 -0.18333 -0.30595 0.066769 0.55022 -0.3511 -0.11646 -0.27231 0.059439 -0.35935 0.14123 -0.082969 -1.0866 0.19506 0.028861 0.19575 
▁4( 0.45427 0.18625 0.066289 0.29258 -0.19293 0.572 0.1554 0.029305 0.35879 -0.21143 0.06777 0.037353 0.095756 0.030656 -0.45796 -0.21703 0.3254 -0.14025 0.24507 -0.23212 0.11762 0.23431 0.21173 0.2045 -0.05802 0.3442 0.010375 -0.093074 0.19717 0.09903 0.28235 0.13357 -0.056691 -0.4559 0.26217 0.1104 0.10007 0.055849 -0.34595 0.026073 0.0051968 -0.072734 -0.058737 0.087083 -0.22587 0.30823 0.255 -0.096957 0.11751 0.24442 0.054244 -0.20787 0.098454 -0.0023885 0.10237 0.34389 0.12585 -0.082188 -0.28103 -0.37144 0.015244 0.2339 -0.16759 -0.22792 -0.32108 0.36149 0.20074 0.15338 -0.049766 0.27658 -0.13954 0.32875 0.3981 0.052625 -0.49344 0.54842 0.12998 -0.23028 -0.15542 0.062596 -0.30474 0.43507 0.078175 0.21204 -0.1383 0.35777 0.065432 0.056952 0.0187 0.15871 -0.053445 -0.075116 0.33572 -0.10777 -0.2678 -0.18079 -0.12409 0.21739 -0.31192 0.61275 
] 0.1523 0.034056 0.073504 0.057633 -0.01902 0.021396 -0.3469 0.30558 0.0068845 0.05441 0.42847 0.41315 0.3461 -0.28904 0.0038825 0.46558 -0.18705 -0.19442 0.061586 -0.31736 -0.27348 -0.11814 0.10867 0.20943 -0.085924 -0.092316 -0.40584 0.18367 0.23113 0.083934 0.014916 -0.28932 0.050292 0.0288 -0.20077 0.024755 0.33872 0.24278 0.038508 -0.19456 0.0068336 -0.24986 0.018621 -0.052742 0.1844 -0.0027914 0.073489 -0.21861 0.092684 0.03804 -0.2532 -0.013988 0.40302 -0.24176 0.016407 0.51262 0.11414 -0.1999 -0.18281 0.024323 0.11285 0.064627 -0.15333 -0.2392 -0.038688 0.31296 0.39638 -0.15558 -0.2309 -0.011205 -0.042515 0.3572 0.046455 -0.046071 -0.52743 -0.099403 -0.10366 -0.24479 0.24879 0.11658 -0.40639 -0.045534 0.37785 -0.13939 0.12545 0.00047207 -0.13733 0.097155 0.07344 -0.12063 0.2 -0.33553 -0.084261 -0.10259 -0.19778 -0.19229 -0.073291 0.1676 -0.15906 0.23599 
-{ -0.085705 -0.057678 0.57353 0.5721 -0.80048 -0.67057 -0.42548 -0.10213 -0.019794 -0.27371 -0.2116 0.24938 0.18855 -0.04849 -0.19587 -0.0032385 -0.48115 0.022331 0.044759 0.44307 -0.57158 0.46065 0.037141 0.32975 0.097908 0.049186 -0.31862 0.36243 0.70812 0.47176 0.097767 0.39391 -0.20709 -0.60072 0.013315 0.22771 0.41464 0.14807 0.23406 0.31781 -0.17804 -0.20241 -0.33408 -0.36493 0.3311 0.39133 0.11518 -0.013439 0.08446 0.17065 0.020936 0.67154 -0.3516 -0.23894 0.26145 0.60293 0.49242 -0.45831 -0.34146 0.23317 0.15982 -0.76634 -0.14015 -0.4118 0.19012 0.51863 -0.18781 0.023814 -0.2695 0.059131 0.3828 0.78158 0.40592 -0.03858 0.25183 0.039623 -0.035878 0.042858 0.4858 -0.40124 -0.073953 0.18559 -0.15532 0.77056 -0.64083 -0.24079 0.020539 -0.4371 -0.20335 -0.02121 -0.47726 0.077319 -0.35171 -0.15535 0.16324 0.24378 -0.054811 0.48663 0.33043 -0.17399 
# 0.063665 -0.10292 -0.15054 0.19177 0.035268 -0.0048419 -0.15547 0.057249 0.066391 -0.18843 0.11287 0.22764 0.1148 -0.13958 0.28291 0.24514 0.24938 -0.24421 0.26233 -0.12569 0.00049138 -0.14689 -0.01747 0.050044 -0.16782 0.0077067 -0.091168 0.092345 0.19873 0.065748 -0.042758 -0.14614 0.14055 -0.13034 0.094809 0.22328 0.38455 0.16076 0.013475 0.056269 0.11475 -0.14848 0.039741 -0.27051 -0.20102 0.18964 -0.39544 -0.25214 -0.092569 0.14973 -0.22795 0.050289 0.020051 -0.24652 0.1956 0.489 0.16532 -0.32639 -0.29365 0.1172 0.19018 -0.14084 -0.26947 -0.019651 0.20626 0.1664 0.30546 -0.26168 -0.22453 0.0037382 -0.20822 -0.10388 -0.089571 0.085841 -0.29847 0.0096086 -0.37004 -0.096419 0.1432 0.093578 -0.24121 0.1261 0.10042 0.0085507 0.1584 0.0013337 -0.12657 0.24614 0.016449 0.11983 0.080647 -0.367 0.076574 0.058205 -0.24632 -0.086017 -0.22556 0.087186 -0.20687 0.17175 
▁ba -0.088203 -0.014394 0.13606 -0.1793 0.15219 -0.29061 -0.033747 -0.23547 0.019537 0.62414 0.55877 -0.2636 -0.23615 0.056965 0.40074 -0.2707 -0.29115 -0.77176 0.22286 0.17142 -0.04278 0.27461 -0.048616 -0.31181 -0.3581 -0.21651 -0.086675 0.26589 0.066913 0.067223 0.15959 0.17315 -0.10239 -0.28919 0.22376 0.18648 0.035834 0.10756 0.43011 0.32928 -0.40623 -0.23146 -0.39212 -0.35998 0.028636 0.20483 -0.093902 -0.11593 0.58238 0.44549 0.091398 -0.63627 0.11843 -0.23167 0.14764 0.62643 0.15212 -0.20766 -0.40403 0.16108 0.53711 -0.26027 -0.41808 -0.14845 0.26557 0.39592 0.48982 0.049787 0.23985 -0.42951 0.77597 -0.54537 0.15138 0.26131 -0.13732 0.18018 -0.17777 0.072343 0.11051 -0.3581 -0.0354 0.14216 -0.15223 0.11336 0.0101 0.28052 0.17856 -0.6845 0.78418 -0.3592 -0.45084 0.019221 -0.32494 -0.60418 -0.27685 -0.40837 -0.22868 0.15119 -0.098981 -0.2096 
ban -0.025287 0.21805 0.095049 0.2679 -0.58614 0.33236 -0.14381 0.12292 0.36017 0.00012987 0.15572 0.15523 0.37566 -0.28862 -0.40157 0.0052657 0.23645 -0.11845 0.38118 0.15784 0.25585 0.47794 0.31033 0.033808 -0.33861 0.11783 -0.080162 0.029816 0.22044 0.12628 0.38192 0.47057 -0.26033 -0.24366 0.0097743 -0.20602 0.14375 -0.041409 -0.39692 0.023604 0.57887 -0.31411 -0.52706 -0.44732 0.041465 0.086674 0.24614 0.045048 -0.0045464 0.35046 0.21125 -0.033489 0.37224 -0.25217 0.22893 0.16136 0.14071 -0.16061 -0.32662 0.22839 0.14725 -0.33417 0.20505 -0.32852 -0.1937 0.20922 -0.2909 -0.63028 0.086185 0.50773 0.076387 -0.17277 -0.023472 0.34702 -0.48538 0.33144 0.30245 -0.26391 0.14244 0.30493 0.25461 0.32731 0.1643 0.0050272 -0.21177 0.15278 0.16323 0.060151 -0.17128 0.17668 -0.059816 0.096936 0.40649 0.22476 0.14169 -0.33666 -0.41482 0.010167 -0.09686 1.0132 
▁lugal 0.020849 0.28451 -0.44537 0.57565 -0.28109 -0.16634 -0.21694 -0.18574 0.12813 -0.064259 0.11052 0.23148 0.37264 -0.83105 0.16615 0.021778 -0.1086 -0.027847 -0.20154 0.44884 -0.12782 -0.25539 0.39349 0.085209 0.03118 0.21771 -0.002813 0.11878 0.65567 0.053978 0.70031 0.16884 -0.44394 -0.29923 0.16637 0.15235 -0.27939 0.7645 0.30976 0.105 -0.30211 -0.071108 0.4794 -0.28127 -0.052494 -0.25884 0.12814 0.41001 -0.21317 0.62121 0.3034 -0.26523 0.17474 -0.26202 1.0351 0.46561 0.15403 -1.1713 -0.13071 0.59647 0.13017 -0.11225 -0.10209 -0.14804 -0.14423 0.60922 0.0063255 -0.43123 0.13008 0.34022 0.87514 -0.0086376 0.096637 -0.3054 -0.25684 -0.011665 -0.18293 -0.36611 0.51454 -0.67202 -0.14539 0.21574 0.094329 0.22541 0.47735 -0.76128 -0.33379 -0.46154 0.34897 0.16123 0.47808 0.43277 -0.074832 -0.050417 0.20453 -0.43634 0.21077 0.23395 -0.17287 0.035118 
du -0.0077266 0.23948 0.3078 -0.20988 -0.14424 -0.45948 0.36601 -0.31033 0.54552 0.15025 0.27801 0.37394 0.48481 0.085657 -0.0527 -0.204 0.24108 0.12659 0.057301 0.10708 -0.0066474 0.21576 -0.27354 -0.36887 0.062068 -0.31667 -0.40768 -0.44137 0.35486 0.30036 0.02756 -0.18125 -0.24394 -0.39575 -0.0061351 0.061933 -0.23843 0.27651 0.14235 0.29954 0.30655 -0.60502 0.091741 -0.11939 -0.085385 0.65797 -0.17057 0.46468 0.31652 0.32484 -0.19163 -0.087723 0.013308 -0.38066 -0.3215 0.15641 -0.033476 -0.5838 -0.3073 0.098086 -0.29316 -0.04657 0.13282 -0.24546 -0.16142 0.39534 0.18701 -0.013914 0.36836 -0.03138 0.28463 0.028319 -0.32928 0.022919 0.2043 -0.2678 -0.20996 -0.13752 -0.11162 0.26842 0.08096 0.21119 -0.063775 0.11778 0.095531 -0.26394 -0.21304 -0.1044 0.080666 0.13809 -0.028619 0.15069 -0.14765 0.27513 -0.18092 -0.093982 -0.32474 0.06364 0.25299 -0.25539 
bi -0.082279 0.29507 0.072671 0.15017 0.0037594 -0.097428 0.16436 -0.057073 0.12354 0.069865 -0.049921 0.44159 0.22519 -0.40138 0.25398 -0.02145 0.10351 -0.17748 -0.052375 -0.043332 0.07975 0.17863 0.14143 -0.1322 -0.14706 0.14319 0.13824 -0.04588 0.1517 0.032054 0.1711 -0.072579 -0.31631 -0.16132 0.10561 0.019133 0.037458 0.38918 -0.10384 0.22804 0.1921 0.3502 0.098179 0.21351 0.19775 0.20951 -0.25937 -0.0042492 -0.09776 0.28859 -0.03869 0.21312 0.30345 -0.48116 0.36425 0.18859 0.080929 0.022322 -0.10989 0.19657 0.034287 0.13136 0.065906 -0.28598 0.2508 0.48994 -0.20071 -0.3706 -0.3557 0.078659 -0.15494 0.18156 0.22146 -0.10862 -0.39083 -0.22544 -0.34044 -0.30747 0.25362 -0.088589 0.42347 0.30678 -0.15312 0.038789 0.16155 -0.1589 0.048033 -0.00029792 0.27778 0.029116 -0.27681 -0.23373 0.29033 -0.2599 0.1114 -0.19905 -0.10192 -0.18292 -0.40314 -0.14715 
la -0.18641 0.21105 0.31706 -0.12578 0.19442 0.17815 -0.044597 -0.19692 0.064649 0.053173 0.15721 0.16796 -0.3848 -0.07307 0.11803 -0.23824 -0.29111 0.19804 -0.098028 -0.0002752 -0.029454 0.19974 -0.25179 -0.55073 0.091019 -0.021745 -0.21367 -0.17263 0.065031 0.49153 0.28747 0.35564 -0.093641 -0.3709 -0.030689 0.50362 0.16311 0.23564 0.012224 -0.11462 0.12223 0.12677 -0.13338 0.046394 0.16018 0.099342 -0.43614 -0.093648 -0.03905 0.070748 -0.68209 -0.0046866 0.38963 0.18846 -0.25918 0.37559 -0.016362 0.061447 0.00070081 0.27498 -0.031107 -0.2835 -0.1331 0.21616 -0.15632 0.10595 0.1612 -0.37925 0.11638 -0.25742 -0.14707 -0.3304 -0.29019 -0.22435 -0.4583 0.19285 -0.36213 -0.20944 -0.036115 0.078684 0.0038877 0.24483 0.13719 0.24457 0.0041293 0.067989 0.29061 0.108 0.022101 -0.11528 -0.30679 -0.18458 0.65272 -0.27425 -0.27125 -0.22186 0.30379 -0.18646 0.10823 0.085333 
ra -0.30506 -0.14768 0.097788 0.3113 -0.23992 0.16104 0.063956 0.064072 0.052271 -0.046356 0.092065 0.30483 -0.040808 -0.20187 -0.046912 -0.035145 -0.15716 0.14079 0.03527 0.020023 0.12444 0.02852 0.039885 -0.0031139 -0.38101 -0.49378 0.31886 0.12611 0.39411 0.048778 0.1189 0.02992 -0.46983 -0.11382 -0.10209 0.31902 0.24899 0.17564 -0.074526 0.22428 -0.20531 -0.1501 -0.13801 -0.39905 0.26032 0.5122 -0.24898 -0.20752 -0.18084 0.54071 -0.2811 -0.028547 0.41464 -0.13132 -0.35169 0.20348 0.0041493 -0.014321 0.1285 -0.020626 -0.13937 0.55747 -0.069039 0.22547 -0.091252 0.44313 0.1342 -0.45583 -0.155 0.077241 0.23145 -0.29495 -0.16822 0.10261 0.01298 0.0066893 -0.16249 -0.20721 0.33634 -0.22142 0.077077 0.26459 0.1415 0.17648 0.13866 -0.060603 0.47374 0.26761 -0.02547 -0.32145 -0.24819 -0.25388 0.10771 -0.10445 -0.39594 0.28496 0.078691 -0.074099 0.30849 -0.25319 
ga -0.21704 -0.11331 -0.069311 -0.034026 -0.092398 0.27783 0.027573 -0.14965 0.39421 0.55025 0.019429 0.052904 -0.020656 -0.030821 -0.17278 0.10905 -0.29058 -0.086194 -0.10231 -0.014582 0.13166 0.28215 -0.38205 -0.15385 -0.1369 -0.51443 -0.29497 0.23275 0.25828 -0.30603 0.1846 0.00061294 0.046632 0.039058 0.42942 0.3343 -0.19066 0.24982 -0.034455 0.17221 -0.1995 -0.2485 0.18602 -0.50662 -0.17158 0.28097 0.091288 0.36811 -0.097075 0.48458 -0.39825 -0.038577 0.43352 -0.4189 0.18679 0.23951 -0.072942 -0.38265 -0.11081 -0.1276 -0.015235 -0.34024 -0.39453 -0.43657 0.090351 -0.24359 0.41897 -0.24565 -0.30345 0.31626 -0.27165 -0.11139 -0.016976 -0.13 -0.42707 -0.025708 -0.1428 -0.425 0.43276 0.4784 0.21037 0.44302 0.46754 0.39994 -0.17558 0.48326 -0.19174 0.51119 0.19802 -0.14252 -0.36309 0.070518 -0.0782 -0.023008 -0.11363 -0.30961 -0.11417 -0.11977 0.14255 -0.32362 
da -0.17059 0.17432 -0.12978 0.18473 -0.083639 0.11427 -0.050404 -0.2626 0.39766 0.30439 -0.21978 0.23736 -0.2298 -0.37545 0.18122 -0.2678 0.0070618 -0.24501 0.04522 0.0080801 -0.32417 0.36052 -0.12748 -0.3579 0.13247 0.11081 -0.68835 0.063837 0.20653 0.24983 -0.073677 0.16668 -0.24575 -0.082003 -0.32981 0.022615 0.21989 0.43149 0.53434 0.18661 0.014242 -0.22474 -0.085086 0.17087 0.38895 -0.046032 0.014882 0.15366 0.61814 0.042231 -0.26789 -0.21317 -0.17943 0.054839 0.052483 0.24387 0.0056904 -0.29667 0.11585 0.21003 -0.41844 0.11653 -0.11321 0.13453 -0.030656 0.61867 0.25276 -0.10994 -0.034548 -0.04115 0.069587 -0.24244 -0.42425 -0.49469 -0.16108 0.1173 -0.2554 -0.029162 0.31753 -0.0071571 0.030687 0.39867 -0.033854 -0.038559 0.24568 -0.24839 0.37651 0.37592 0.090047 -0.035488 -0.4071 0.10981 -0.0070566 -0.027482 -0.14924 -0.014885 -0.52235 0.41464 -0.093543 -0.089933 
e -0.031502 -0.41641 0.0144 -0.22128 0.087038 -0.18238 -0.087409 0.11096 0.29518 -0.014042 0.14048 0.27989 -0.065294 -0.15271 -0.17725 0.41626 0.28665 -0.40099 0.067152 -0.10092 0.37727 -0.068911 -0.0056019 -0.46154 0.40178 -0.23227 -0.33589 0.47748 0.44479 0.23909 0.2522 -0.092429 -0.15052 -0.47649 0.011194 0.15968 0.12954 -0.071156 0.22425 0.14575 0.0095849 -0.36502 -0.033068 -0.087439 -0.30041 0.61541 -0.18276 0.33365 0.058101 0.13615 -0.24105 -0.094221 -0.2452 -0.048231 0.089952 0.092779 -0.15407 -0.23718 0.14577 0.016648 -0.014678 -0.25789 -0.082349 0.20508 -0.062166 0.18299 0.49968 -0.32285 -0.30118 0.43348 0.13863 0.07936 0.4078 0.11735 0.048041 -0.11714 -0.60274 0.0086341 0.32627 -0.089271 -0.16827 0.1928 -0.11605 0.2067 -0.25039 -0.44552 0.1262 -0.052186 0.22763 -0.068935 -0.063935 -0.28989 -0.32273 -0.04257 -0.49431 -0.053998 0.16627 0.0015074 -0.36196 -0.024095 
▁ki -0.37595 0.082015 0.075198 -0.14291 -0.25787 -0.33332 -0.34834 -0.05429 0.13652 0.11223 0.36264 0.25644 -0.32146 -0.47754 0.0353 0.32873 -0.18723 -0.019372 -0.28693 -0.14595 0.57249 0.15696 -0.0024216 -0.11891 -0.10965 -0.69768 0.29751 0.40363 0.40849 0.12143 0.16245 -0.32421 -0.18325 -0.090102 0.13857 0.24629 0.32164 0.11674 0.037296 0.053847 0.20904 0.034538 -0.27468 0.066976 0.40079 0.10827 -0.22557 -0.17085 0.20836 0.505 0.013627 -0.15236 -0.0035855 -0.0045894 0.079218 0.62122 0.24774 -0.060586 -0.31202 0.01757 -0.1615 0.11713 -0.31408 0.094473 0.13999 0.065983 -0.14331 0.078751 0.30791 0.38988 -0.19252 0.12109 0.47892 0.23515 -0.29903 0.48184 -0.34851 -0.31306 0.51223 -0.025253 -0.011914 -0.011988 0.23514 0.072383 0.166 -0.06824 -0.35091 -0.021828 0.033335 -0.22892 -0.29147 0.008633 0.29171 -0.14839 0.030853 -0.36286 0.28252 0.13959 -0.26379 -0.21405 
▁x 0.20693 0.010039 -0.15919 0.082482 -0.21488 -0.38026 -0.33465 0.22268 -0.01874 -0.18191 0.2839 0.14234 -0.071199 -0.17183 -0.046209 0.17208 0.045626 -0.15898 0.19996 0.10229 0.08844 -0.40268 -0.10788 0.14488 0.20351 -0.45441 -0.32013 0.0041774 -0.19231 0.13891 0.33084 -0.27486 0.041944 -0.27016 -0.26228 0.053727 0.34833 0.54235 -0.15438 0.23634 -0.2091 -0.32161 0.096272 0.1094 -0.13159 -0.33479 0.13571 -0.19125 -0.0883 -0.046236 -0.16098 -0.024844 -0.065305 -0.29319 0.053193 0.40541 0.10414 -0.3546 -0.40454 0.027025 0.215 0.028362 -0.28001 -0.33945 0.12907 0.14045 0.61765 -0.061878 -0.12419 -0.073306 -0.092818 0.19783 0.20276 0.32387 -0.18712 0.28002 -0.22116 -0.30538 0.031454 0.53126 -0.12169 0.3689 -0.14198 0.15393 -0.036306 0.039428 0.29043 0.50692 -0.091565 0.0031817 0.09497 -0.28324 0.091312 0.068307 -0.18523 -0.058359 -0.11252 -0.1197 -0.11526 0.3923 
▁lu -0.19316 -0.039803 0.040274 0.2271 -0.27611 0.062609 0.15114 -0.20642 -0.25891 -0.022451 0.38165 0.59082 0.15612 -0.063324 -0.064779 0.37151 -0.18038 0.2061 -0.085674 0.29078 -0.075517 0.27011 -0.0045773 -0.34425 -0.3587 -0.45286 0.099104 -0.32708 0.29631 -0.10679 0.21191 -0.1316 0.021786 -0.046604 -0.24103 0.20006 -0.1647 -0.12159 -0.072675 -0.19349 0.13137 -0.24177 -0.12835 -0.061142 0.19158 0.065452 0.20092 0.1496 0.15304 0.39905 -0.061881 -0.077105 0.41524 -0.13479 0.33036 0.86925 -0.036376 -0.12413 -0.39382 0.38457 -0.40839 -0.4386 -0.4802 0.14539 0.11257 0.022671 0.059889 -0.31616 -0.30574 -0.040296 0.22399 -0.054528 -0.49349 -0.3095 -0.2996 0.030523 0.020592 -0.3009 -0.056854 -0.37248 0.30737 0.39705 0.17977 0.63855 -0.17973 -0.23342 0.099169 -0.31845 0.090749 -0.18325 0.22213 0.25332 0.24331 -0.12446 0.243 0.31477 -0.12236 -0.47362 -0.4593 -0.039039 
ni -0.51539 -0.24555 0.30057 0.029092 -0.006999 -0.18323 -0.055884 -0.16057 0.036848 -0.031552 0.072342 -0.023883 0.22215 -0.29118 0.067034 0.21648 -0.25176 -0.0010136 0.41938 0.053812 0.11779 0.018703 -0.48039 -0.16056 0.07636 -0.07488 -0.088867 -0.12482 0.569 0.42432 -0.011196 -0.08288 -0.040033 -0.21685 0.082857 0.3057 0.073205 0.50803 0.36308 0.31116 -0.26638 -0.070453 -0.0076436 -0.023226 0.16279 -0.058876 0.056625 0.18441 -0.0146 0.22801 -0.48282 -0.11987 0.26959 -0.33978 -0.28779 0.24971 -0.045463 -0.19364 0.059784 0.2432 -0.18201 0.18113 0.058577 0.28077 0.14544 0.037118 0.14833 -0.21795 -0.040379 0.22541 -0.11568 -0.21553 0.025913 -0.19738 -0.27117 0.32885 -0.10831 -0.38803 0.1811 0.23814 0.40535 0.32328 -0.034789 -0.14359 -0.23858 -0.073545 -0.10211 -0.11036 -0.22708 0.23686 -0.17105 -0.1968 0.1723 0.051799 -0.34497 0.072825 -0.15714 -0.15361 -0.095669 -0.14828 
barig 0.078911 0.33836 -0.0335 0.30412 -0.53714 0.4297 0.10111 0.15364 0.44169 0.12863 0.035674 -0.024569 0.13625 -0.2903 -0.38277 -0.011567 0.15241 -0.21623 0.16978 0.070807 0.083738 0.27336 0.21605 -0.046862 -0.20763 0.049861 0.067085 -0.060879 0.39751 0.1043 0.27376 0.62097 -0.35933 -0.27359 -0.088917 -0.032296 0.32841 -0.018299 -0.28889 0.12839 0.62017 -0.35306 -0.50811 -0.46269 0.00099863 -0.023803 0.26806 0.050451 0.2076 0.34232 0.18813 -0.15979 0.34698 -0.076994 0.17181 0.34762 0.095163 -0.10499 -0.41181 0.2444 0.28929 -0.30978 0.18881 -0.50112 -0.31611 0.31733 -0.36153 -0.69749 0.084557 0.53686 0.2216 -0.16374 0.0345 0.17998 -0.36163 0.29102 0.33476 -0.28825 0.027291 0.11427 0.19071 0.41702 0.0608 -0.016837 -0.25729 0.17401 0.27088 0.07305 -0.07819 -0.18294 -0.10454 0.19185 0.35799 0.2403 0.25544 -0.06737 -0.18709 -0.025243 -0.15209 0.80466 
sze -0.061145 -0.11378 0.035862 -0.2889 0.0058119 -0.28765 0.10405 -0.14445 0.015469 0.13657 0.41774 0.41277 0.075401 -0.035423 -0.042046 0.01462 0.28325 -0.13293 0.34692 -0.038917 -0.19315 0.041417 -0.029489 0.10352 -0.038079 0.4284 0.17254 0.029389 0.35214 -0.34267 0.24307 0.026071 -0.18069 -0.061361 0.28871 0.15502 -0.051818 0.47089 0.041681 -0.17327 -0.081022 0.058044 -0.17676 -0.38794 0.049418 -0.02416 0.04052 0.55688 0.18065 0.090536 -0.055285 -0.15923 0.30615 -0.15621 -0.31426 0.19983 0.016349 0.2029 -0.12858 -0.052789 -0.11504 0.076316 -0.13085 0.35721 -0.273 0.40352 -0.010248 -0.41582 -0.25686 0.01024 -0.29553 -0.14522 0.022769 0.31594 -0.066922 -0.093282 0.10063 -0.1505 0.14458 0.29156 0.014601 0.49347 0.17377 0.24405 -0.36422 -0.2395 0.38532 -0.093014 0.19867 0.063095 -0.11621 -0.030383 0.52512 -0.063137 0.22617 -0.33408 -0.49317 0.10605 -0.19394 -0.29339 
x 0.60929 0.19259 -0.058998 0.068376 -0.091796 -0.14838 -0.22165 0.13358 -0.1763 -0.01824 0.23517 0.49329 0.098397 -0.04579 -0.043358 0.20073 -0.020516 -0.099229 0.091225 0.094869 0.051467 -0.34016 0.12049 0.12492 -0.073611 -0.37515 -0.27834 0.12627 0.013384 -0.13003 0.053211 0.061287 -0.14231 0.043494 0.095229 0.37945 -0.083245 0.67621 0.23894 -0.0028567 -0.12272 -0.56705 0.25262 -0.039454 0.15055 -0.30372 0.024132 -0.083953 0.014733 -0.22947 -0.29208 0.068279 -0.01686 -0.44748 -0.19868 0.38484 0.10674 -0.44706 -0.148 0.11922 -0.13214 -0.32028 -0.07945 -0.3817 -0.2763 0.25641 0.36368 -0.13667 0.12118 0.13752 -0.074622 -0.17079 0.095737 0.092072 0.013481 0.38909 -0.21681 -0.37327 -0.05048 0.49852 -0.095716 0.42622 0.17914 -0.10389 0.0041407 -0.05185 0.51905 0.40396 -0.030071 0.015827 0.006916 -0.32775 0.20628 -0.063947 -0.079409 -0.064909 -0.18495 -0.32823 0.11117 0.30936 
#- -0.26956 0.22323 0.12543 0.0094761 -0.0508 -0.028632 -0.022791 -0.21085 0.056276 -0.12593 0.18731 0.29404 0.13598 -0.16692 0.32392 0.12702 -0.030092 -0.065562 0.24128 -0.28053 -0.17061 -0.034706 -0.020603 -0.19668 -0.1738 -0.21991 -0.2096 0.05817 0.32838 0.02895 -0.028744 0.013351 0.0044001 -0.098277 -0.012371 0.32765 0.22351 0.39859 0.25484 -0.037548 0.086589 -0.69251 0.011532 -0.27795 0.10105 0.21992 -0.31953 -0.14888 -0.081238 0.10552 -0.41126 0.14395 0.10081 -0.19231 0.12441 0.53262 0.17751 -0.17244 -0.30715 0.16454 0.3397 0.029009 -0.13161 0.25364 0.22401 0.22043 0.19326 -0.3168 -0.29722 -0.0011003 -0.23025 -0.0952 -0.21947 0.0059488 -0.43004 0.13835 -0.32073 -0.026643 0.22233 0.096603 -0.22218 0.018909 -0.18298 -0.14967 0.14741 -0.025515 -0.27754 0.11172 -0.067948 0.025718 0.094285 -0.20917 0.033144 0.023567 -0.1073 0.12356 -0.26664 0.10709 -0.27962 0.13276 
▁e -0.33531 -0.242 0.16225 -0.099386 -0.068452 -0.10569 0.44335 -0.1991 0.028538 -0.03967 0.16956 0.37828 -0.1482 -0.098177 -0.19255 0.32543 0.20101 0.12617 0.056337 0.18264 0.062918 -0.016214 -0.26857 -0.043466 -0.1607 0.13071 0.084377 0.22312 0.10657 -0.087511 0.011145 -0.33827 -0.029481 -0.28743 -0.28437 0.61466 0.42429 0.41136 0.10375 0.039402 0.016829 -0.34735 -0.45499 0.37565 -0.018811 0.31661 -0.27068 0.36433 0.18247 0.40958 -0.1927 -0.20477 0.21548 -0.022708 0.11181 0.27485 -0.060195 -0.27228 0.33104 0.23076 0.035661 0.061907 0.0083842 0.21725 -0.24897 0.48832 0.35308 -0.10325 0.24002 -0.13973 -0.18022 0.15197 -0.14147 -0.27391 -0.072097 0.33926 -0.32287 -0.28518 0.24895 0.11489 -0.1745 0.057872 0.21986 0.12814 -0.061763 -0.14762 0.25977 -0.26028 0.1931 0.06943 -0.31586 0.040316 -0.1825 -0.14056 -0.06077 -0.10985 -0.12784 -0.17741 -0.32203 0.096409 
▁sze 0.011003 0.34613 0.038339 -0.11723 -0.13449 0.28545 0.34649 0.61087 0.4736 0.36056 0.23829 0.16378 -0.033107 0.264 -0.068332 0.23875 0.2438 -0.072599 0.28829 -0.0097913 -0.20874 -0.053673 -0.18337 0.27297 0.044268 0.27305 -0.1073 -0.09424 0.28155 -0.058816 0.22566 -0.029227 -0.2087 -0.28907 0.54807 0.012826 0.34945 0.30684 -0.13534 0.11794 0.27254 -0.01135 -0.75599 -0.1954 -0.22397 -0.055376 -0.028588 0.2587 -0.27706 0.18453 -0.014923 0.0019225 0.016187 0.38279 0.075922 0.24412 0.34807 0.047548 -0.56305 0.26777 0.069999 0.12617 -0.25083 -0.0079612 -0.49561 0.55627 0.023377 -0.41031 -0.24816 0.73831 -0.13189 -0.018854 0.062081 0.15346 -0.4301 -0.047863 -0.027771 -0.35761 -0.07233 -0.030157 0.20957 0.68696 0.39361 0.1035 0.03923 0.037522 -0.028833 0.23668 0.60205 0.25623 -0.2379 -0.16185 0.53316 0.49748 0.047405 -0.1084 -0.027811 0.0094756 -0.16002 0.066438 
▁sza -0.337 0.10529 0.1386 -0.18614 -0.040742 -0.24919 0.12858 -0.25026 0.14028 -0.015456 0.10358 0.25064 -0.15247 -0.31777 -0.22592 -0.11274 0.46232 0.1049 -0.073601 0.503 -0.12656 -0.56636 -0.45525 -0.096734 -0.32152 0.025704 -0.22973 -0.024161 -0.09533 0.05145 0.094539 -0.20593 -0.0021127 -0.43294 -0.20426 0.014908 0.028629 0.11565 0.32774 0.14625 0.030959 -0.31435 -0.38425 0.033424 -0.083055 0.44625 -0.30059 -0.14924 -0.0063826 0.23704 -0.27421 -0.17106 0.060169 0.22891 -0.16259 0.22021 -0.12418 -0.16467 -0.22243 -0.39152 -0.085048 -0.022022 -0.32191 0.44163 0.025452 0.29434 0.1839 -0.19403 -0.11129 0.14693 -0.33621 -0.081352 0.1161 0.15834 -0.26446 -0.0041394 -0.21451 -0.11484 0.31889 -0.024887 -0.088665 0.46473 0.29336 0.080208 0.027592 0.18651 -0.010104 -0.32036 -0.049929 -0.060822 0.31152 -0.10372 0.21529 0.055895 -0.1128 -0.060384 -0.1121 0.071562 -0.10086 0.07722 
▁szu 0.11276 0.14171 0.074816 -0.09132 0.057239 -0.023985 0.068246 0.025865 0.021078 0.16512 0.41827 0.2459 -0.21556 -0.12153 0.45415 -0.018174 -0.21216 0.16199 -0.13295 0.1914 0.22234 -0.15806 -0.26852 -0.058156 -0.38213 -0.030426 -0.11951 -0.25926 0.28887 0.16084 -0.00074019 -0.58201 -0.094581 0.045999 0.57986 0.044877 0.68353 0.32876 0.30905 0.064018 -0.24389 0.035367 -0.31969 0.0052201 -0.20514 0.151 0.089246 0.40981 0.21443 0.33774 -0.20545 -0.0090599 0.24734 0.14101 0.20597 0.57762 -0.43035 -0.26188 -0.02374 -0.34524 0.042714 -0.022324 -0.12258 0.16968 0.14713 0.56932 -0.067971 -0.083961 -0.47987 -0.0019613 0.3284 -0.19969 -0.23957 -0.063601 -0.55419 0.54875 -0.33393 -0.054073 -0.20134 0.20042 -0.1406 -0.23526 -0.033748 0.14389 -0.26717 -0.19115 0.23391 -0.047218 -0.14833 0.19063 0.007395 -0.34072 0.38406 0.23026 -0.10099 -0.23446 -0.09194 -0.17678 -0.31436 0.085323 
szu -0.032222 0.14169 0.28416 -0.21428 -0.098359 -0.1498 0.11432 -0.24955 -0.024551 -0.044338 0.10203 0.13741 0.26815 -0.24147 0.18086 0.3402 0.028028 -0.11203 0.036496 0.079333 0.47892 -0.21127 0.41055 -0.28954 0.28644 -0.15706 -0.28015 0.16201 0.34732 -0.057536 0.097537 -0.32489 0.08085 -0.44507 0.27913 -0.18034 0.17216 0.73556 0.61196 0.23457 -0.35038 -0.34386 -0.24991 -0.05672 0.22571 0.296 -0.28303 0.047013 0.1206 0.063106 -0.1595 0.072357 -0.05836 0.13966 -0.023106 0.14764 -0.41995 -0.060742 -0.20487 -0.4197 0.34228 -0.068343 -0.10887 -0.069766 0.081363 0.25383 -0.083587 0.12015 -0.30299 -0.30633 0.035061 -0.31331 -0.27633 -0.22658 -0.19455 -0.24741 -0.72283 -0.15243 0.15046 0.042676 0.049191 0.029205 0.1314 0.012238 -0.34227 -0.26323 0.15276 0.059295 -0.20417 -0.052269 0.18886 -0.16352 0.47865 -0.21643 0.018533 0.18284 -0.17245 0.057522 -0.21673 0.09584 
n 0.37928 0.070105 -0.24708 0.23122 -0.15238 -0.10275 0.11318 -0.14724 0.061918 -0.37572 0.3044 0.20291 -0.020586 -0.16872 -0.21619 0.087831 0.58524 -0.45029 -0.05373 -0.45542 0.20575 -0.40351 0.33757 0.17815 -0.28964 0.069075 -0.66805 -0.20678 0.068002 0.10481 0.42785 0.26882 -0.063943 -0.26557 0.05461 0.358 0.20182 0.36887 0.0061669 0.16507 -0.10816 0.27771 -0.23549 -0.28067 -0.12218 -0.14317 -0.33262 0.024853 0.072601 -0.016607 -0.022426 -0.23992 0.14658 -0.18005 -0.029639 0.1985 0.087995 -0.53411 -0.42227 -0.068928 -0.067099 0.03274 -0.15979 -0.13101 -0.17863 0.21296 0.96423 -0.044437 0.044663 -0.21902 -0.19296 0.48212 0.18858 0.21806 -0.22481 0.25308 0.016882 -0.15325 -0.22593 0.4408 -0.21359 0.38745 0.13964 -0.35479 0.089705 -0.037544 0.033734 0.50937 -0.043276 0.021379 0.0063096 -0.60581 0.44453 0.22653 -0.55184 -0.40029 -0.40258 0.15907 -0.24853 0.48755 
▁iti -0.82054 0.58997 -0.20555 -0.51084 -0.58547 0.43271 -0.64717 0.47998 0.47896 -0.86822 1.5136 0.032525 -0.15233 0.63718 0.47174 0.094619 -1.0956 -0.54572 0.4064 0.24137 -0.029844 1.0641 -0.33037 0.55061 0.48265 0.14136 -0.74261 -0.21401 0.31097 0.51251 0.35787 0.31704 -0.8855 -0.85792 1.4267 0.7457 0.53148 0.8221 0.57061 -0.41891 0.85824 0.6648 -0.20501 -0.14737 -0.28666 0.38928 0.084564 -0.70377 0.26099 1.0127 0.58715 -0.049466 1.0825 0.29001 1.3269 -0.15388 1.6898 -0.47469 0.7103 0.30164 0.58301 0.14175 -0.45513 -0.13338 -0.47785 1.5468 -0.12948 0.45577 -0.79745 0.35374 1.8398 0.22454 0.62686 -0.23158 0.28945 -0.090515 -0.98854 0.030964 -0.11117 0.42446 0.45914 0.32759 0.65811 0.26061 -0.70733 -0.37715 0.48881 -0.42816 0.70977 -0.34321 -0.70237 0.50487 0.055048 -0.20816 0.54846 0.5249 -0.3846 0.28476 -1.2006 -0.49287 
ti -0.56519 0.25943 0.18578 -0.042783 -0.18725 -0.28653 -0.14175 -0.1024 -0.15215 -0.1252 0.50903 -0.054753 -0.28315 -0.11459 -0.16898 0.0091496 -0.15234 -0.18307 0.14125 0.057845 -0.19443 0.22144 0.24739 -0.26424 -0.075591 -0.34729 -0.066159 0.28436 0.26026 0.68643 -0.26471 -0.44244 -0.15787 -0.55288 0.13456 -0.081953 0.092282 0.1955 0.3607 -0.067353 -0.48529 -0.14466 -0.43629 -0.1173 0.014599 0.65845 -0.17958 0.23404 -0.20055 -0.10915 -0.33782 -0.23423 0.053121 0.051292 -0.18967 0.31598 -0.12539 -0.2261 -0.37109 -0.12327 -0.10722 0.26675 0.2114 -0.034723 0.35369 0.10618 -0.028712 -0.3479 -0.42517 -0.27411 0.25019 -0.2531 -0.070457 -0.24579 -0.29416 0.053541 -0.31269 -0.2731 -0.15388 0.31504 0.15121 -0.036728 -0.17939 0.15858 0.14384 -0.1355 -0.088718 -0.13326 -0.062177 -0.1177 -0.12046 -0.32093 0.40069 -0.15676 -0.45861 0.1087 -0.1763 -0.08114 -0.076141 0.14188 
▁dumu -0.17059 0.036699 0.10532 -0.032421 -0.28148 0.11237 -0.33975 -0.003866 0.17046 -0.020185 -0.11462 0.28261 0.10764 -0.093471 -0.024157 0.29144 -0.28472 -0.14436 0.09038 0.39465 -0.22301 0.078938 -0.17598 -0.33644 0.32011 -0.61145 -0.12842 0.078691 0.64146 0.34091 0.08798 0.12978 -0.20086 0.081268 -0.21729 0.18965 0.39691 0.19726 0.012223 -0.39759 -0.043422 -0.57204 -0.23589 -0.6174 0.4865 0.13462 0.28492 0.4828 0.065496 0.31415 0.57429 -0.21009 0.24348 -0.2812 0.27782 0.5603 0.28781 -0.15824 -0.3789 0.27778 -0.21863 -0.32993 -0.1569 -0.15755 -0.19753 0.3017 -0.24314 0.091702 0.0092261 0.435 0.16117 0.020622 -0.30594 0.04248 -0.49616 0.39706 0.13854 -0.39727 0.36965 -0.13278 0.070535 0.19738 0.22852 0.18916 -0.53767 -0.069299 -0.17923 0.16745 -0.61508 -0.54619 0.016222 0.2667 -0.016747 0.21328 0.097195 -0.44587 -0.051375 -0.35135 -0.2457 -0.095666 
▁gu -0.0671 0.11389 0.26091 -0.42669 0.097584 0.31849 0.03917 -0.48857 0.29737 0.16796 0.20264 0.21181 -0.16915 0.16954 0.25519 -0.18001 0.19038 0.11465 -0.12651 -0.56547 0.59769 -0.11654 -0.038786 0.19199 -0.23854 -0.0063919 0.040151 -0.10292 -0.2783 -0.30677 0.033176 0.2848 -0.23484 -0.44927 0.026732 -0.1029 0.36992 0.12577 0.018538 -0.1253 -0.3466 0.15064 0.079766 -0.26828 -0.17788 -0.13192 0.21481 0.032853 -0.07156 0.66877 -0.52858 -0.0090214 -0.039951 -0.035168 0.28082 0.27838 0.095286 0.13422 -0.16089 -0.13401 0.10927 -0.33022 -0.10387 -0.35057 -0.70331 0.73092 0.40371 -0.3087 -0.030474 -0.12361 0.034631 0.017653 0.065627 0.094707 -0.17614 0.28257 -0.29204 -0.44175 0.24593 0.02498 -0.1477 0.10786 0.076793 0.41405 0.39379 -0.095731 -0.29366 0.13703 0.48442 0.047605 -0.24482 0.56365 0.4602 -0.1922 0.050141 -0.54295 -0.3084 0.23773 -0.31553 0.23022 
▁gur -0.14761 0.59115 -0.0099128 0.033389 -0.3557 0.43472 0.10108 0.21802 0.37675 0.68992 0.1906 -0.33316 -0.24428 -0.062133 -0.21943 -0.10452 0.14627 -0.21694 0.084124 -0.31792 0.54546 0.34039 0.32034 0.34246 0.18594 0.33982 0.038598 -0.16257 0.40028 -0.32021 0.33063 0.49025 -0.43137 -0.43281 -0.034801 -0.15814 0.25174 -0.29629 -0.29345 0.25419 0.47608 -0.32546 -0.91861 -0.28117 -0.34898 -0.10681 0.35194 0.16183 -0.077867 0.36333 -0.12383 -0.23754 0.4265 -0.59145 -0.13011 0.36041 0.38634 0.013876 -0.80412 0.29563 0.59044 -0.072439 0.05718 -0.84317 -0.48358 0.3107 0.21384 -0.80194 0.062671 0.66391 0.24874 -0.23499 0.20039 0.1176 -0.324 0.098344 0.029605 -0.14785 0.11775 0.015164 0.26727 0.53172 -0.12729 0.018298 -0.004953 0.030702 0.25888 0.1116 0.26452 -0.24836 -0.41841 0.043817 0.49758 0.22398 0.19747 -0.17655 -0.14253 -0.21968 -0.29406 0.7848 
ku -0.30729 0.058027 0.23083 -0.28099 -0.13482 0.026063 0.30324 0.066736 0.3798 0.10903 0.16388 0.081631 0.12325 0.039157 0.31907 0.0016866 -0.16536 -0.24118 -0.010826 0.12745 0.35473 -0.10577 0.012857 -0.27785 -0.16377 0.059086 -0.48232 -0.15741 0.2396 -0.24806 -0.079622 -0.096567 -0.0096158 -0.41254 0.36849 0.52809 -0.078211 0.50087 0.49966 0.39814 -0.03649 -0.3886 -0.12253 -0.13527 0.072492 -0.22027 -0.32376 0.16501 -0.35536 -0.14109 -0.20299 0.22249 -0.23196 0.032663 -0.44339 0.155 0.01575 0.069315 -0.19641 0.029012 -0.45222 0.053204 -0.08363 -0.20352 0.19049 0.37823 0.14272 -0.27985 -0.43825 0.62773 -0.37537 0.51884 -0.022432 -0.047343 -0.40425 0.16686 -0.42549 0.090643 0.14331 0.16713 0.057449 0.48835 0.26641 -0.12642 0.38016 -0.049292 0.54161 -0.38789 0.0025708 -0.441 -0.24496 -0.28262 0.33057 -0.049937 0.00075068 0.054697 -0.36342 0.25548 -0.23767 -0.44153 
▁ma 0.12708 0.25084 0.10598 -0.31715 0.16271 0.18442 0.15151 -0.22453 -0.12757 0.33481 0.25719 0.16168 0.41497 0.15612 0.26761 0.54275 -0.057369 0.027638 0.20693 -0.025953 -0.1477 -0.31393 -0.11846 -0.019653 -0.032447 0.060789 0.2811 -0.10235 -0.095949 -0.07269 0.58406 0.34629 0.033003 -0.32059 -0.23485 -0.16967 0.33631 0.50812 0.49036 0.27984 0.32406 0.0028104 -0.30425 0.069198 -0.21272 -0.00069618 -0.291 -0.0026075 0.082308 0.39765 -0.29774 -0.30123 -0.35745 -0.09933 0.10196 0.34328 0.10117 -0.045862 -0.3684 -0.37766 -0.14862 -0.015809 -0.25535 -0.28584 0.29005 0.61492 0.074189 0.054537 0.094419 0.090771 -0.073965 -0.35407 0.13337 -0.01962 -0.43817 -0.012638 0.045606 -0.25699 -0.014471 -0.25805 0.079157 -0.23911 -0.031918 0.2533 0.19826 0.10903 -0.051399 -0.072807 0.19183 0.14553 -0.1423 0.0059253 0.53099 -0.36853 -0.31822 -0.19057 -0.088468 -0.018517 0.096138 -0.25892 
mu -0.13821 0.046309 -0.043122 -0.1192 -0.39583 -0.14651 -0.029985 -0.28371 0.11106 0.44652 -0.011308 0.17499 0.30209 0.037928 -0.06935 -0.05759 0.023067 -0.013823 -0.16169 -0.055052 0.18185 0.14383 -0.017218 -0.37324 -0.4389 -0.5932 -0.27051 0.21394 0.28517 0.10032 -0.11901 0.1615 0.12477 -0.45043 -0.22695 0.17545 -0.23424 0.61145 0.10493 0.29744 -0.016186 -0.22001 -0.0064752 -0.40844 0.06112 0.33258 -0.18013 -0.19412 0.18534 0.15761 -0.14996 -0.049809 -0.17494 -0.16324 0.20775 0.41252 0.31043 -0.031608 -0.1233 0.46132 -0.046531 -0.1079 0.086313 0.39481 -0.071947 0.084624 0.2785 -0.017555 -0.38088 -0.1723 -0.042481 -0.21084 -0.073883 0.045876 -0.15336 0.0083585 0.031865 -0.36311 0.18969 0.011138 0.38298 0.26971 -0.11004 0.14198 0.23125 -0.14493 -0.097864 -0.13007 -0.18078 -0.18286 -0.25746 -0.44117 -0.1205 -0.2017 -0.31077 -0.011483 0.012055 -0.088924 -0.16435 0.10428 
kam -0.015118 0.27094 -0.068738 -0.062883 0.098131 -0.011697 0.87974 -0.056407 -0.014783 0.18256 0.31637 0.20704 0.05873 -0.068714 0.21267 0.095737 0.26585 -0.18012 -0.27016 -0.47154 0.36983 -0.24402 -0.18589 0.086123 -0.96147 -0.38435 -0.021551 -0.17528 -0.30655 0.23033 0.11637 -0.20065 -0.35668 -0.1047 -0.1275 0.37578 0.12433 0.20609 0.080435 -0.15584 0.026067 0.02475 0.13265 -0.081744 -0.5084 0.46943 -0.021545 0.011587 0.28669 0.24546 0.55755 0.089117 0.58364 -0.31761 -0.23861 -0.018314 0.53567 0.01248 -0.48378 0.1895 0.29164 0.1483 -0.40272 0.050953 -0.14789 0.63986 -0.25439 0.20452 -0.097907 -0.32167 -0.071114 -0.37958 0.011981 -0.32131 -0.36595 0.41378 0.17616 0.42236 0.11191 -0.16543 0.66219 0.72712 0.035663 0.83693 0.20999 0.0059618 0.42951 -0.30917 0.48415 -0.15505 0.037077 -0.061595 0.46054 -0.41461 0.18315 -0.24813 -0.27641 0.47274 -0.12207 -0.18021 
sa -0.54523 0.29308 0.012999 -0.16166 -0.6783 -0.11106 0.49168 -0.15643 0.044351 0.72311 0.26529 -0.09589 0.44413 -0.32134 -0.072397 0.020486 0.00013815 -0.23329 0.046867 0.042136 0.20674 0.27725 0.046051 -0.33849 -0.17954 -0.36367 -0.43817 -0.22762 0.55917 0.2472 -0.047294 -0.14072 -0.23205 -0.050549 0.028492 0.22247 -0.55211 0.10491 0.42073 0.019331 0.20248 -0.21919 -0.064601 -0.34716 -0.20726 0.67288 -0.061361 0.10874 0.14968 0.54303 -0.32986 -0.27634 0.30803 -0.55998 -0.2471 0.27809 -0.20889 -0.13086 -0.23764 0.6894 0.002896 -0.57979 0.086991 -0.38667 0.3189 -0.28635 0.55191 0.3202 0.17806 -0.13279 0.10538 0.23544 0.24221 -0.06342 -0.0050218 0.11239 -0.34428 -0.47683 0.53905 -0.2121 -0.18435 0.034874 0.0045629 0.1175 0.24736 -0.63757 0.094142 0.17465 -0.23166 0.042377 -0.10123 0.42103 0.24828 -0.35146 0.048847 -0.13873 0.33383 0.24619 -0.45761 -0.25458 
sza -0.21505 0.25712 0.36836 -0.28698 0.011398 -0.23119 -0.15878 0.12011 0.10034 0.24592 0.081808 0.48132 -0.079496 0.028105 -0.05287 -0.11625 -0.068625 -0.077939 0.095719 0.060216 -0.26225 0.077382 0.28367 -0.27573 -0.096621 -0.15302 0.013817 -0.012122 0.0092688 -0.042612 0.37758 0.067597 -0.1715 -0.48751 -0.013976 0.076611 0.25063 0.58639 0.63038 0.096283 -0.13158 -0.12775 -0.24893 0.27275 0.061019 0.34458 -0.61166 0.23275 0.23734 0.13683 -0.23719 -0.010875 -0.058617 -0.29217 -0.057624 -0.16373 -0.069377 0.080837 -0.077347 -0.25356 -0.1354 0.1124 -0.076616 0.63152 0.24365 0.20508 0.096267 -0.393 0.10811 0.092438 -0.2331 -0.21857 -0.0003728 0.0045423 -0.27577 -0.14651 -0.46994 0.06139 0.21754 0.43489 0.05108 0.55648 0.18354 0.18455 -0.022015 -0.13536 0.20275 -0.3108 -0.24195 -0.41008 -0.084682 -0.036731 0.37497 0.084742 0.21126 0.10753 -0.17068 -0.085477 0.074091 0.016587 
▁gin -0.14355 0.17465 0.21274 0.59528 -0.18542 0.34202 0.64209 -0.032509 0.3524 -0.56681 0.72454 0.73585 0.49191 0.17508 0.34171 0.17449 -0.31326 0.28566 -0.0157 -0.21184 0.086299 0.028498 0.25899 -0.021068 -0.41174 0.23392 0.17556 -0.34532 0.071238 0.33276 0.38829 0.52056 -0.048661 -0.9065 -0.033071 -0.27466 -0.70089 -0.49077 0.25679 0.093792 -0.064566 -0.11445 -0.4512 0.053448 -0.45109 -0.62061 -0.10461 0.42089 0.021652 0.64446 -0.27393 -0.64046 0.36702 -0.41971 0.066031 -0.11375 -0.17025 -0.19215 -0.33406 -0.37107 -0.11899 -0.11811 -0.18812 -0.71223 -0.21164 0.6587 0.20008 -0.36229 0.46872 0.9491 -0.70476 0.04565 0.7747 -0.4983 -0.29927 0.0045937 0.043684 0.27099 -0.33738 0.52811 -0.13578 0.17055 0.33435 0.95452 -0.055432 -0.13935 0.13738 0.52546 -0.29814 -0.2873 0.093606 -0.38361 0.57624 -0.72688 0.055733 0.020948 0.43948 -0.21456 -0.38192 0.6354 
gal -0.12725 0.64686 -0.46269 0.016616 -0.10871 -0.32669 0.23269 0.10416 0.36935 -0.45299 0.25468 0.041815 0.03139 0.2227 0.055873 0.73381 0.14712 -0.15534 0.23089 0.31076 0.0069676 0.043515 -0.19917 0.072141 -0.04948 -0.17583 0.14391 0.14537 -0.028576 0.16343 -0.15203 0.44002 -0.2175 -0.11849 -0.11201 0.21716 -0.46282 -0.079472 0.13154 -0.10478 0.16367 -0.2057 -0.1985 0.048543 -0.39451 -0.081254 -0.39748 0.17609 0.0095988 0.56478 -0.13001 -0.10782 0.10436 -0.15262 -0.14763 0.3269 -0.40048 0.099837 0.10748 -0.012771 0.10268 -0.32335 -0.21336 0.39579 -0.21951 0.42773 0.20352 -0.36308 -0.19314 0.19472 0.64335 0.093186 0.12339 -0.043221 -0.18269 -0.085308 -0.18568 -0.48828 0.27301 -0.026869 0.17193 0.36178 0.5045 0.65953 -0.011173 -0.28998 -0.05268 0.078554 -0.32561 0.29451 -0.84119 -0.61923 0.0067811 -0.14383 -0.022179 -0.50279 -0.12661 0.33575 -0.17689 0.21618 
4- 0.051827 0.2119 0.47253 -0.20354 -0.51149 -0.18168 0.0086866 0.084002 0.19856 -0.13712 0.20078 0.33829 -0.52936 -0.24764 -0.054332 0.29679 -0.0030601 0.21645 -0.4839 0.3599 0.24925 -0.25685 -0.53086 -0.44473 -0.45318 0.12348 -0.20921 -0.036951 0.19736 -0.086215 0.17115 0.043177 0.19228 -0.14549 0.30537 0.2255 0.35588 -0.019514 0.33269 -0.06335 0.1772 -0.18928 -0.23375 -0.31486 -0.002346 0.54239 0.1509 0.21443 0.37043 0.17405 -0.43803 -0.086844 0.34223 -0.008437 0.18335 0.1073 0.064715 -0.15992 -0.42442 0.096688 -0.10641 0.20884 0.12952 0.33217 -0.08952 0.2154 -0.098299 0.11066 -0.40288 0.055375 0.071571 0.48491 -0.089205 -0.028027 -0.38184 0.074409 -0.40515 -0.48451 -0.19971 -0.059018 -0.19769 0.1972 -0.49622 0.29758 0.058211 -0.17009 0.046571 -0.27273 0.25236 0.22403 -0.5226 0.68477 0.12168 0.051702 -0.3882 -0.17696 -0.30625 0.026967 -0.61344 -0.078376 
i -0.18039 0.025058 0.16504 -0.1342 -0.5573 -0.26751 -0.27813 -0.23587 -0.081213 -0.23166 0.23986 0.41512 -0.073548 -0.10485 -0.18103 0.23614 -0.092659 -0.23167 0.14261 -0.040874 0.40589 -0.022302 -0.036954 -0.12619 -0.0040359 -0.16562 -0.57223 0.55434 0.43919 0.036167 0.17795 -0.096751 -0.11392 -0.37082 -0.21712 -0.33715 0.10598 -0.094346 0.065914 0.48897 -0.29847 0.00060327 -0.085089 0.058762 0.089697 0.29926 -0.64588 -0.37785 -0.18155 0.11808 0.059889 -0.016669 0.14453 -0.048136 0.24935 -0.14506 0.358 -0.25068 0.12529 0.42651 0.036498 0.065237 -0.28205 -0.16586 0.45578 0.16771 0.78355 -0.29539 -0.6206 -0.0072212 -0.33057 0.45678 -0.13656 -0.070665 0.23328 0.020929 -0.33391 -0.18684 0.040244 -0.23941 0.43857 0.15091 -0.018245 0.1654 -0.17571 0.026353 0.17446 -0.21077 0.088952 -0.22113 0.37291 -0.34173 0.38639 0.12581 -0.28748 0.15243 -0.16053 0.32853 -0.012581 -0.009545 
▁udu -0.017847 0.52124 0.12329 0.032514 -0.050602 0.17891 -0.0033629 -0.23892 0.15885 -0.35833 0.039984 0.55508 -0.33088 0.024384 0.030181 -0.070667 -0.022006 -0.67935 -0.35227 0.1242 0.24398 -0.30643 0.081548 0.26021 -0.11714 -0.018582 -0.28402 -0.34376 -0.53259 -0.33075 0.2689 0.073586 0.094485 -0.38625 -0.0047717 -0.055267 0.57148 -0.060279 -0.19193 -0.024899 -0.14165 -0.15921 -0.13244 -0.39405 0.031755 0.3278 0.63401 -0.025948 -0.00029445 0.63448 0.15016 0.23489 0.27629 -0.41642 0.0073571 0.50393 -0.27462 0.012175 -0.42918 -0.00070095 -0.17321 0.064946 -0.93411 -0.34188 -0.78863 0.4199 -0.20509 -0.29 0.09785 0.17754 0.20071 0.061504 -0.10513 0.17939 -0.2355 0.61738 -0.097759 -0.29912 0.35194 0.16098 0.45102 0.047728 0.57989 0.47009 -0.15132 -0.020832 -0.010529 -0.04118 0.083793 0.14218 -0.54905 0.48005 -0.27374 -0.66847 -0.67115 -0.5043 -0.19431 0.4651 0.00019312 0.26702 
▁ku -0.17044 0.049868 0.079043 -0.23314 -0.10809 0.12759 0.47617 0.057233 -0.012513 0.17132 0.028226 0.22966 0.11723 0.10134 0.13396 -0.2542 -0.27765 0.17064 0.29409 0.060227 0.38623 -0.23567 -0.12378 0.26717 -0.20011 0.0038584 -0.41934 -0.46615 0.074835 -0.38876 0.040461 0.39528 -0.26505 -0.55793 -0.16959 0.59966 0.19851 0.12853 -0.14805 0.37725 -0.13738 -0.18645 -0.19652 0.37195 0.082432 -0.42862 -0.12229 -0.20499 -0.27705 0.47104 -0.079207 -0.3353 -0.13238 0.017723 -0.30807 0.10268 0.06502 0.033849 -0.20048 0.020054 -0.10617 0.37796 -0.039507 -0.13801 0.3428 0.55311 0.43105 -0.2633 0.22362 0.51225 -0.28623 0.33449 0.25508 0.22404 -0.053065 0.13028 -0.76638 -0.097244 0.054429 -0.15158 -0.015956 0.14294 0.17218 0.49463 0.26144 0.086385 0.27388 -0.22772 -0.10413 -0.13684 -0.048679 -0.089734 0.63176 -0.25353 -0.17482 -0.31788 -0.19663 0.20974 -0.23238 -0.077201 
li -0.094164 -0.010436 0.14874 -0.07358 -0.51713 0.076863 -0.32131 -0.09666 -0.16043 -0.092867 0.12254 0.26333 -0.031725 -0.060769 -0.0013059 -0.16031 -0.23117 -0.18084 0.16476 0.15601 -0.086436 0.045794 -0.36582 -0.32124 0.10197 -0.31648 -0.12265 0.29867 0.55543 0.21506 0.13131 0.32009 0.23488 -0.40099 -0.33139 -0.11042 -0.1885 0.20606 0.37644 0.1612 -0.12049 0.31189 -0.45238 -0.074546 -0.22303 0.52216 -0.18919 -0.273 -0.35185 -0.31916 -0.42366 0.45785 0.24369 -0.2774 -0.40047 -0.29245 0.077903 -0.12596 -0.053447 0.42184 -0.046545 -0.081776 0.12114 0.21773 0.18 0.66689 0.18415 -0.028768 -0.62367 3.1607e-05 0.033365 -0.080396 0.075289 -0.49682 -0.32888 0.34404 -0.47644 -0.11862 0.014399 -0.0165 0.10625 0.15717 0.10735 0.086002 0.39147 -0.12524 -0.19862 -0.054791 -0.097868 -0.2911 0.099342 0.011905 0.46869 -0.32713 -0.079128 0.1251 0.11101 -0.3277 0.063344 0.12919 
t 0.1027 -0.12242 0.33668 0.14575 -0.013228 0.03637 0.2793 -0.37084 0.03288 -0.069847 0.060994 0.72747 0.44585 0.10832 0.18601 -0.18306 0.52334 -0.35798 0.07233 0.022246 0.3574 0.40647 0.1512 0.2038 -0.78658 -0.17138 -0.25438 -0.022748 0.53382 0.031614 0.15491 0.42086 -0.1755 -0.0065632 -0.22327 0.044117 0.081865 0.63498 -0.10374 -0.06345 -0.50478 0.14427 -0.45228 0.25595 0.039193 0.23761 -0.23931 0.083644 0.0072257 -0.34597 -0.46032 0.18138 0.24505 0.30121 -0.094832 0.040008 -0.42744 -0.1332 -0.065789 -0.21538 0.20977 0.079593 -0.82769 -0.1628 0.079481 0.42733 -0.1406 0.31897 -0.31147 0.079205 -0.13692 0.35714 0.31608 0.024655 -0.20783 0.32013 -0.24734 -0.07015 -0.48583 0.038836 0.028051 0.62923 -0.10952 -0.1327 0.049458 0.088644 -0.20457 0.75396 0.24666 0.2673 0.10961 -0.31098 0.023464 -0.07147 -0.33113 -0.26979 0.063753 0.64515 -0.14726 -0.078002 
gu 0.048428 -0.18762 -0.059617 -0.38675 -0.17549 0.18288 -0.074729 -0.24618 0.30452 0.2562 0.18041 0.14671 -0.33817 -0.3872 -0.34501 -0.52256 0.49996 -0.057523 -0.02625 -0.35907 0.35101 0.39528 -0.41352 -0.27962 -0.16032 0.095743 -0.26638 0.24865 0.16363 0.35654 -0.31753 0.3529 -0.36657 -0.74854 0.19153 -0.095242 0.088204 0.21019 -0.28014 -0.00073079 0.23728 0.068061 0.44036 -0.27134 0.13825 -0.40478 0.22916 0.21895 0.074115 0.10915 -0.95146 -0.11694 0.10307 -0.098618 0.21074 0.15733 -0.060113 -0.0045349 -0.39322 0.039798 -0.21388 -0.058823 -0.38951 0.19729 -0.41454 0.47827 0.62238 -0.13836 -0.46543 -0.14984 -0.02105 -0.056186 -0.058826 -0.29383 -0.28085 -0.11125 0.0057417 -0.15879 0.33307 0.31445 0.3221 0.029707 -0.011971 0.48852 0.11288 -0.41763 0.16506 0.013201 0.44374 -0.076411 -0.21358 0.1425 0.32229 0.10266 0.2264 -0.18609 -0.18834 0.13783 0.083697 -0.002836 
gi 0.081363 -0.025199 0.30591 -0.24427 -0.62917 0.15061 -0.0038831 -0.676 -0.039006 -0.35834 -0.011166 0.53586 -0.43459 -0.02513 0.16733 -0.042034 -0.1367 0.071988 -0.37758 -0.31945 0.58139 0.30508 0.13841 0.20674 -0.25462 -0.2541 0.14411 0.30449 0.36778 0.080633 0.37202 -0.2099 -0.094614 -0.30841 0.18769 -0.66187 0.10326 0.28732 0.093449 0.61439 -0.0024833 -0.14385 -0.057114 -0.75941 0.48269 0.066031 0.16832 0.067084 -0.046144 0.25151 -0.40515 -0.18411 0.13807 -0.21507 0.22797 0.21346 0.13906 -0.41874 -0.016035 0.17164 -0.22819 -0.042433 -0.079063 0.042397 -0.26502 0.088063 -0.099367 0.21095 -0.13413 0.075418 0.034857 -0.32137 -0.2432 0.033528 -0.38548 0.29713 -0.32161 0.009406 0.37819 0.07974 -0.043238 0.20368 0.14401 0.33292 0.72565 -0.28498 -0.22557 0.1273 -0.1005 0.3995 -0.50603 -0.33138 0.066868 -0.12901 0.08792 0.062177 -0.38708 -0.25876 0.045041 -0.19221 
an 0.014863 0.066901 0.096925 -0.151 -0.045803 -0.058704 -0.027118 -0.21284 -0.37967 0.011408 0.39259 0.0091103 0.04528 0.44471 -0.00015858 0.046914 0.040636 -0.08329 0.25516 0.12827 -0.23644 -0.22523 -0.30487 -0.087282 -0.059242 -0.22914 0.0043673 0.75102 0.23876 0.21403 -0.1675 0.11194 0.1296 -0.51715 0.27679 -0.04214 -0.14381 0.5761 0.18562 0.10987 -0.21029 -0.25556 0.18852 0.0091073 -0.041062 -0.013152 -0.072863 0.34155 0.29553 0.13448 -0.20502 -0.19815 0.12958 -0.29882 -0.12733 0.13664 -0.50667 -0.43503 -0.01347 0.11478 -0.045092 0.20199 -0.089189 0.040697 0.31412 0.51014 -0.056213 -0.38207 0.014288 0.0084297 0.32224 -0.35587 0.094339 -0.12654 -0.29037 0.22101 -0.34328 -0.099686 0.43983 -0.058914 -0.22305 0.3126 0.061024 0.063418 0.047521 0.044433 0.45329 -0.17153 -0.13077 -0.12776 -0.46631 -0.074389 0.39189 -0.10807 0.095156 -0.072429 -0.41135 0.069736 0.10442 -0.042145 
ka -0.32102 -0.29569 -0.085875 -0.35916 0.078015 -0.064422 0.054779 -0.060362 -0.1263 0.053467 0.18214 0.37245 0.016921 0.13579 -0.22607 0.14386 0.025312 -0.24534 -0.023553 0.26116 0.059918 -0.15487 -0.18916 -0.32083 0.035673 0.086186 0.065254 0.20821 0.15564 -0.086447 0.20991 -0.022234 -0.44172 -0.50311 -0.12287 0.18646 0.22894 0.12589 0.36541 -0.079755 -0.045672 -0.14131 0.065152 -0.10507 0.16574 0.48962 -0.43424 0.26967 -0.18834 -0.083854 -0.52591 -0.00080463 0.20476 -0.011896 -0.45487 0.45677 0.27767 -0.10366 -0.082704 0.22678 -0.058902 -0.10443 -0.22977 0.085512 -0.0021583 0.20936 0.010777 -0.078642 -0.036883 -0.35976 -0.13574 -0.16608 -0.11417 -0.035155 0.14039 0.35813 -0.45727 -0.21105 0.15172 0.21239 -0.20335 0.34873 0.13606 0.40669 0.030126 0.20293 0.031068 -0.069143 0.0062883 -0.39834 0.10635 -0.13829 0.19827 -0.18462 -0.22556 0.02367 -0.51095 -0.072345 0.14337 -0.44192 
nu -0.20049 0.31205 0.11029 0.1385 -0.27951 -0.25678 0.32358 -0.28032 0.07747 -0.30201 0.0081159 0.13123 0.14577 -0.22212 0.20433 -0.085647 0.0086199 -0.094218 0.11203 0.1385 -0.1669 0.059322 0.012921 -0.33478 -0.24635 -0.34216 -0.080708 -0.11135 0.54477 0.27194 0.094526 -0.13632 0.1184 -0.38352 0.13327 -0.055958 -0.19209 0.40721 0.72676 -0.0399 -0.39207 -0.47415 0.2349 0.12687 -0.014247 0.15214 -0.11547 -0.034161 -0.040928 -0.3327 -0.53678 -0.12798 -0.074837 -0.34265 -0.026836 0.1944 -0.21497 -0.16313 -0.32453 -0.11016 -0.089047 -0.014569 0.063046 0.32036 0.25278 0.14923 -0.024077 -0.14995 -0.32643 0.012927 0.023624 -0.34925 -0.14224 -0.079488 -0.34047 -0.11873 -0.53717 -0.2372 0.095601 0.15146 0.36852 0.2155 0.26435 -0.20078 -0.27883 0.11586 0.12501 0.074787 0.042468 -0.36494 -0.14572 0.072503 0.11289 0.026876 -0.25794 -0.27917 -0.050728 -0.06486 -0.17871 0.25204 
▁la -0.26294 0.09802 0.035826 0.011883 -0.075113 0.33822 0.67222 -0.079184 -0.22757 -0.14166 0.32538 0.50047 0.058722 -0.14195 -0.069061 -0.0015694 0.063021 -0.078068 0.34337 -0.019405 -0.30904 0.22071 -0.14734 -0.076649 -0.18628 -0.13602 0.0075224 -0.32998 0.14141 0.20545 0.38755 0.15601 0.098961 -0.071455 -0.16752 -0.13172 0.046943 0.43703 0.082641 0.24897 0.039915 -0.14579 -0.49026 0.20527 -0.2784 0.10224 -0.25777 0.19442 0.0096803 0.24652 -0.27407 0.36427 0.22856 0.10812 -0.19146 0.0081291 0.27192 -0.019975 -0.22227 -0.53654 -0.21548 -0.04672 -0.23059 -0.022355 -0.17785 0.28897 -0.10927 -0.49727 -0.51349 0.0068132 -0.035592 0.099928 -0.021217 0.017264 -0.52561 0.21846 0.010202 -0.22911 -0.20945 -0.29172 0.066279 0.41437 0.11225 -0.057935 -0.060701 0.29552 -0.064696 0.16469 0.11105 0.16097 -0.048105 0.28026 0.059185 -0.19843 -0.19576 0.029872 0.16781 0.072621 -0.14047 0.20921 
zi -0.067547 -0.11378 0.057338 -0.44643 -0.34521 0.014899 0.40507 -0.35919 0.1301 0.52456 0.051722 0.18708 0.019481 0.10172 0.11793 0.10015 -0.052712 -0.062593 0.35909 0.10141 -0.097678 0.54866 -0.082862 -0.044486 -0.099996 0.2088 -0.052355 -0.44396 0.35833 0.34059 0.10416 0.013066 -0.27253 0.12571 0.35927 0.23749 0.088708 0.23408 0.29792 -0.44313 -0.15842 0.016142 -0.31199 -0.032607 0.44138 0.03688 -0.10484 -0.19067 0.23762 0.13816 -0.26283 -0.31818 -0.023278 -0.1817 -0.16393 0.59086 -0.012526 -0.51 0.15419 0.21285 -0.41271 -0.044808 0.3262 0.21128 -0.43902 0.4537 0.19488 -0.11263 -0.29589 0.16109 0.23096 -0.26517 -0.52148 -0.15347 -0.37753 0.10968 -0.14723 0.03699 0.84156 0.32543 0.11914 0.55767 -0.2927 -0.1017 0.022892 0.064187 0.24418 0.69025 -0.55894 0.36534 -0.55234 -0.2053 0.50141 0.060269 0.16409 0.0059286 -0.74739 0.15224 0.24853 -0.33178 
▁6( 0.50989 -0.033064 0.050334 0.086438 -0.1402 0.58911 0.24427 0.077082 0.33547 -0.32125 0.15278 0.043502 -0.020867 -0.035359 -0.18182 -0.28461 0.27576 -0.13469 0.17267 -0.34708 -0.026231 0.19838 0.15616 0.37658 0.025195 0.40584 -0.033379 -0.29859 0.15228 0.12012 0.28071 0.2139 0.058215 -0.36888 0.32184 -0.015102 -0.0021289 0.091316 -0.28673 0.079396 -0.097475 -0.015132 -0.0035873 0.21668 -0.22628 0.36059 0.21985 -0.022384 0.061172 0.17446 -0.083812 -0.28116 0.26758 -0.011733 0.068893 0.34115 0.14335 -0.0060964 -0.22327 -0.53735 -0.051935 0.2019 -0.2287 -0.29693 -0.33589 0.44888 0.2916 0.044112 -0.14714 0.26826 -0.21273 0.30707 0.45805 0.087688 -0.3105 0.59979 0.043231 -0.18853 -0.13336 0.059822 -0.30508 0.41173 0.13228 0.4543 -0.11745 0.43295 -0.058637 0.087629 0.067469 0.14563 0.039518 -0.16041 0.35935 -0.17004 -0.27124 -0.2159 -0.12605 0.25074 -0.27379 0.42964 
]- -0.19777 0.31395 0.33607 -0.13632 -0.25476 0.020774 -0.1233 0.060258 -0.13356 0.058672 0.40031 0.48921 0.1268 -0.099125 0.19469 0.43558 -0.29384 -0.076183 -0.011121 -0.27499 -0.34271 -0.039139 0.11908 -0.030001 -0.15899 -0.23417 -0.40614 0.056405 0.28426 -0.023513 -0.028052 -0.27534 -0.1186 -0.028523 -0.15315 0.024766 0.13944 0.46604 0.11884 -0.16474 -0.074276 -0.75071 -0.093936 -0.14714 0.2564 -0.0025392 -0.10881 -0.25951 -0.0052913 0.036468 -0.4421 0.089049 0.32656 -0.25232 -0.057172 0.57899 0.19638 -0.081899 -0.22685 0.16816 0.27533 0.13961 -0.11198 0.097572 0.20818 0.40438 0.37015 -0.21672 -0.19132 -0.0091677 -0.0071765 0.21797 -0.21869 -0.079867 -0.51606 0.018156 -0.17494 -0.18313 0.34754 0.18616 -0.37575 -0.079832 0.20899 -0.3316 0.11287 -0.10363 -0.16852 -0.13081 0.18019 -0.22033 0.20785 -0.066992 -0.023554 -0.055173 -0.21534 0.074781 -0.079371 0.22126 -0.28138 0.15222 
5 0.064355 -0.0065576 -0.45025 0.0088491 0.15774 0.16883 -0.12567 0.38995 0.25219 -0.23572 0.2543 0.036634 0.26055 0.12391 0.097807 0.36855 0.019904 -0.40707 -0.74452 0.47242 0.50798 0.017727 -0.062488 -0.1929 0.48815 -0.2342 -0.43488 -0.30944 0.058614 0.17682 -0.65512 -0.0092599 -0.2046 -1.1038 0.39109 0.09811 0.062369 0.28463 -0.051398 0.39499 -0.3535 -0.1742 -0.11291 -0.12185 -0.45033 0.30367 -0.25797 -0.079847 0.21898 0.62135 0.099123 0.069168 0.022572 0.36881 0.15128 -0.038294 -0.11587 0.019196 -0.4496 0.67863 -0.29063 0.11578 -0.19339 -0.2197 -0.13763 0.83336 -0.16492 -0.31371 -0.42283 0.29148 -0.12829 0.5998 -0.055737 -0.33803 -0.43572 0.13696 0.14233 -0.092667 -0.20499 0.26872 -0.44776 0.43831 0.80263 0.22146 -0.087878 0.65367 -0.23621 0.17155 -0.12734 -0.038786 -0.6194 -0.16827 -0.014735 -0.29884 0.0046401 -0.52369 -0.34333 -0.25952 0.41971 -0.22543 
6 0.47419 -0.75102 0.26976 0.036394 -0.2387 -0.17385 0.098126 0.33751 0.43133 0.082853 0.548 -0.23847 -0.065094 0.033142 -0.0094916 0.4419 -0.29811 -0.20017 -0.056896 -0.31225 0.62701 0.084914 -0.3922 -0.19334 -0.0893 0.080949 -0.40135 -0.29412 0.19007 0.2334 -0.14715 0.88996 -0.50231 -0.4276 -0.32222 0.21915 0.29364 -0.17443 -0.093439 0.41726 -0.76846 0.2517 -0.28262 -0.044904 0.19519 0.57446 0.25851 -0.22405 0.12652 0.10504 0.16356 -0.36254 -0.11664 0.71122 0.10545 0.20213 -0.16746 -0.53362 0.24226 0.38564 -0.20607 0.33456 -0.3315 -0.254 -0.34307 0.29355 -0.058769 -0.070951 -0.14422 0.18778 -0.14531 0.1156 -0.039472 0.44942 -0.074657 0.27299 -0.18534 -0.5692 -0.10882 -0.18257 -0.19378 0.59657 0.84197 0.25058 -0.32088 -0.42122 -0.31621 0.8554 -0.22334 0.21021 -0.6782 0.27298 0.40563 -0.40837 0.20446 0.058098 -0.46913 -0.1803 0.60198 -0.27746 
▁, -0.030948 -0.1976 -0.79089 0.60637 0.12681 -0.49596 0.21398 -0.26106 -0.5402 -0.41743 0.61515 0.013442 -0.11097 -0.46304 -0.13397 0.39529 0.088014 -0.89552 0.010874 -0.69286 0.20502 -0.70724 0.62142 -0.1036 -0.3785 -1.0872 -0.95127 -0.3739 0.30157 0.93456 0.66605 1.0462 0.85579 -0.66501 0.75266 1.0012 0.5528 0.43856 -0.36723 0.64667 0.057226 0.86435 -0.42731 -0.36227 0.037879 -0.25683 -0.046579 0.84203 0.15885 0.56819 -0.22133 -0.075473 0.80942 -0.004261 0.22172 -0.09209 -0.21083 -0.81617 -0.66451 -0.1657 0.034612 -0.33495 0.021138 -0.59861 -0.24756 0.69729 1.0938 0.39858 0.71537 -0.52416 0.077113 0.67411 -0.39083 0.86978 -0.47856 -0.24411 0.0043925 0.48739 -0.098138 0.70715 -0.40089 1.0777 0.29447 0.45899 0.32791 -0.18335 0.030841 0.9008 0.0050348 0.12169 -0.063785 -0.21769 0.69273 -0.10332 -1.0708 -0.073023 -1.1749 0.39901 -1.2004 0.40475 
en 0.028219 0.19967 0.144 0.022887 0.093739 -0.39456 0.12126 -0.53457 -0.12422 -0.31676 0.64706 0.081103 -0.063871 0.37267 0.01083 0.24017 -0.012648 0.24877 -0.020976 0.19404 0.43072 -0.1231 0.48958 -0.49201 0.23943 -0.0059537 -0.37575 0.1721 0.49982 0.38059 0.48263 0.22355 0.052836 -0.22117 -0.13492 0.1533 -0.18015 0.281 -0.09226 0.079568 0.16722 -0.40401 0.27664 -0.081748 -0.063659 0.02352 -0.4461 0.24066 0.31617 0.034645 -0.45253 0.065596 0.15612 -0.37525 0.1593 0.42924 0.39711 -0.11964 -0.18803 -0.20632 0.22959 -0.22155 -0.32587 0.050619 -0.012694 0.20756 0.3772 -0.045432 -0.13942 -0.25276 0.66981 -0.098907 -0.26492 0.29857 -0.29411 0.099664 -0.34549 -0.32705 0.51822 -0.33019 0.0041417 -0.1803 0.20868 0.10686 -0.26917 -0.37912 0.042356 0.060481 -0.2226 0.11956 -0.80877 0.22026 0.60315 -0.098743 0.088517 -0.30928 0.065285 -0.28544 0.059224 -0.50496 
lu -0.5269 0.0014929 0.074048 -0.36505 -0.32777 0.12811 0.25601 -0.061403 -0.18965 0.25788 0.53207 0.42068 0.10981 -0.37294 0.21636 -0.29534 0.0084016 -0.26251 0.012564 0.2538 0.044377 0.1853 0.22593 -0.24952 -0.27218 -0.10936 -0.36862 -0.14663 0.51446 0.49373 -0.011735 0.10959 -0.014979 -0.088661 -0.1324 0.24944 -0.11708 0.36323 0.10248 0.26841 -0.039034 -0.36807 -0.10622 0.19819 -0.12617 0.3433 -0.19644 0.21425 0.2682 -0.1727 -0.12804 -0.16547 0.042494 0.0059602 0.062832 0.74435 -0.36549 0.11385 -0.24086 0.42465 -0.55438 0.061871 -0.27573 0.19877 -0.13972 -0.21001 0.3819 -0.051129 -0.37419 -0.053491 -0.093481 -0.057778 -0.19774 -0.0084692 -0.17316 0.041749 -0.21448 0.012098 0.0093667 -0.062027 0.48613 0.058887 -0.0045616 0.11817 0.10741 0.16919 0.19778 0.074131 0.018859 -0.2723 -0.13586 -0.14687 0.32306 0.12054 -0.015186 0.3026 -0.051386 -0.19292 -0.10067 0.078766 
, -0.64743 0.31056 0.20639 -0.3152 -0.46291 -0.3192 -0.16627 -0.33182 -0.68241 -0.41063 0.35017 0.42463 -0.074353 -0.10283 0.051976 -0.18899 -0.012158 -0.24552 0.093854 -0.1109 0.28429 -0.32887 -0.41715 -0.44488 -0.52527 -0.3788 -0.33213 0.24369 0.39401 0.015817 0.33607 0.19502 -0.15926 -0.22752 -0.056643 -0.0089722 -0.12826 0.40308 0.28947 0.1458 -0.41604 0.01009 -0.4393 0.17392 0.25143 0.95697 -0.23999 0.29231 -0.0582 -0.37506 -0.024052 -0.077493 -0.26879 0.17656 -0.099673 0.52388 0.087675 -0.35287 -0.018675 0.15685 0.36102 0.64554 -0.023827 0.092405 0.11671 0.39116 0.39086 -0.31294 -0.57267 0.21545 -0.099158 0.04507 -0.087328 -0.5555 0.087713 0.13372 -0.34345 -0.51712 -0.017621 0.1547 0.31013 -0.041112 0.003979 0.3493 0.093144 -0.18574 -0.20686 0.087979 0.39709 -0.028062 0.37244 -0.35712 0.38521 -0.096979 -0.13946 0.3305 0.27049 0.54225 -0.49601 0.31748 
2@ -0.067799 0.51697 0.023554 0.24051 -0.19939 0.99867 -0.097782 -0.11961 0.3212 -0.23645 0.23025 -0.14725 0.27226 0.20718 -0.046879 0.12038 0.27621 -0.37376 0.45702 -0.19524 0.20308 0.13642 0.18433 -0.065425 -0.61399 0.38127 -0.14118 -0.23194 0.85016 -0.01053 0.17679 0.70546 -0.23186 -0.32257 -0.41862 0.44054 0.2557 0.18417 0.0080105 0.24747 0.41924 0.24747 -0.089984 -0.83776 -0.14355 -0.017518 0.24768 0.34858 0.23921 0.43464 -0.44691 -0.28036 0.22875 -0.18153 0.14762 0.32031 0.33028 0.027668 -0.0096151 0.12572 -0.0055629 0.020376 -0.20748 -0.58322 -0.14967 0.29052 -0.083288 -0.087144 -0.20853 0.57019 -0.21158 0.046808 -0.6515 0.41122 -0.23318 0.046479 0.24559 -0.15574 -0.05609 0.22496 -0.26854 0.40903 0.11565 -0.21378 -0.72226 0.060868 0.15305 0.2706 -0.36357 -0.021896 -0.23268 0.21534 0.20978 0.058461 0.52744 -0.23839 -0.37329 0.25897 -0.023214 0.95843 
um -0.37331 0.32212 0.3212 0.0033226 -0.11709 -0.037464 -0.17069 -0.14835 -0.19777 -0.019812 -0.50467 0.24952 0.023839 -0.29716 0.0045297 0.041067 0.39359 0.099741 0.075878 0.15619 -0.092097 -0.099994 -0.3056 -0.23172 -0.69314 -0.12911 -0.65432 0.068671 0.56711 -0.013064 -0.20706 -0.30205 -0.38166 -0.023461 -0.41863 -0.30714 0.0013629 0.39701 0.48269 0.19403 -0.39958 -0.17919 0.038003 0.077725 -0.25606 0.17359 0.068094 -0.46274 0.30831 0.13843 -0.16397 -0.2233 -0.0024785 0.018822 -0.04685 0.25466 0.036095 -0.011731 -0.70406 -0.12371 -0.53117 -0.04703 0.38672 -0.017079 -0.0063073 0.5952 0.28886 -0.082939 -0.62451 -0.10724 0.27487 -0.51051 -0.086674 -0.15687 -0.23896 -0.02196 -0.03646 -0.095399 -0.29509 -0.19024 0.72023 0.54641 -0.089256 0.018291 0.024344 -0.071221 -0.60615 0.35257 0.41981 -0.19134 -0.43882 -0.23549 0.24399 -0.076124 -0.45609 0.37712 -0.19381 0.16449 0.16262 0.20928 
-[ -0.15355 0.28977 0.19082 0.2389 -0.0089945 0.02191 -0.27791 -0.13335 0.042755 -0.051815 0.21707 0.088928 0.17633 -0.23889 0.11117 0.4025 -0.14114 -0.1759 0.151 -0.1929 -0.23913 0.066564 0.2227 0.21189 -0.015766 -0.37557 -0.15012 0.029288 -0.045416 -0.071514 0.073366 0.26522 -0.15089 -0.12808 0.011988 0.2241 0.051099 0.27871 0.505 -0.016682 0.028366 -0.60688 0.076435 -0.38795 0.35143 0.16155 -0.57542 -0.20707 -0.015818 0.1173 -0.04815 0.16874 0.21321 -0.056759 0.032927 0.20205 -0.17264 -0.43973 -0.27001 0.14232 -0.065443 0.14309 -0.22117 0.060888 0.15163 -0.077121 0.49421 -0.10421 -0.43396 -0.32426 -0.25317 0.19048 -0.10058 -0.081361 -0.30303 0.39552 -0.23241 -0.037946 0.17731 0.21156 0.0563 0.086982 -0.44802 0.049849 0.019154 -0.14236 -0.049682 0.10729 0.071408 -0.10052 0.049828 -0.057974 0.064865 0.024624 -0.22567 -0.17863 -0.12354 -0.06185 -0.19659 -0.024181 
ri -0.47867 0.33673 0.21364 0.010926 -0.25304 -0.29058 0.093662 -0.34542 -0.10374 -0.036987 0.097438 0.1495 0.0033286 -0.29627 -0.12616 -0.17602 -0.3331 -0.39943 0.34118 0.080978 -0.19749 0.0018338 -0.26812 0.068275 0.2722 -0.2922 0.13343 0.00068501 0.36513 0.34428 0.32893 -0.43271 0.13287 -0.44929 -0.33944 -0.17408 -0.12638 0.30626 0.71409 0.019253 -0.35426 -0.116 -0.03789 -0.14422 -0.14506 0.33178 -0.34865 -0.064808 -0.10468 0.15022 -0.77425 -0.11888 0.069281 -0.14182 -0.21496 0.41799 -0.090326 -0.37181 -0.20805 0.027462 -0.031048 0.02893 0.17646 0.20304 0.25484 0.29789 0.01854 -0.34302 -0.23345 -0.26293 -0.15851 -0.05474 0.1251 -0.42053 0.098597 -0.10767 -0.14745 -0.29427 0.19948 0.33039 0.46343 0.25062 0.072939 -0.4773 -0.022652 -0.17566 0.090832 0.23985 -0.19951 -0.094678 -0.18123 0.087442 0.25424 -0.24283 -0.18004 0.070308 -0.062008 0.15786 -0.059838 0.2848 
nin 0.29639 0.19292 -0.57085 0.42961 -0.43635 -0.011924 -0.38565 -0.43412 -0.12912 -0.87481 0.51646 -0.11814 -0.31736 0.29248 -0.33808 -0.21327 -0.43097 0.34078 -0.28568 0.35632 0.31586 0.12343 0.3376 0.022658 -0.46352 0.3257 0.23644 -0.094627 0.48834 0.15237 0.20798 -0.16284 -0.48163 -0.35928 0.36094 0.51097 0.18113 0.38388 0.025464 -0.17606 -0.58882 -0.75325 -0.67748 -0.81861 0.49914 -0.47337 -0.24506 0.20532 0.19647 0.24395 -0.76434 0.4523 0.39677 -0.19657 -0.053265 0.47253 0.11617 -0.4701 -0.35327 0.24731 0.075902 -0.59696 -0.58063 -0.11757 -0.25267 0.49564 0.12559 -0.11949 -0.12026 0.023143 0.69388 0.33525 -0.45499 -0.1247 0.30913 0.076179 -0.27264 -0.41587 1.1794 0.021397 0.52094 0.15755 0.34151 0.21727 -0.044707 -0.25859 -0.28223 -0.29858 0.052542 0.027228 -0.40001 0.089559 -0.096224 -0.31826 0.90632 -0.77182 -0.0096895 -0.098269 0.50432 0.032558 
am -0.48735 -0.28808 -0.04042 -0.23581 0.10891 -0.32696 0.43697 0.22986 -0.23383 0.38109 0.068936 0.41447 0.076938 -0.25998 0.3676 -0.49763 -0.028803 -0.04296 0.065687 0.24228 -0.056843 -0.15139 -0.34455 0.12328 0.038292 -0.29821 -0.37368 0.068452 0.74784 -0.18432 0.0067013 0.20789 -0.30859 -0.25222 0.23947 0.0068469 -0.04618 0.2647 0.21852 -0.060322 0.04022 -0.1069 0.20728 0.08299 0.43248 0.28255 -0.51161 0.41316 -0.013784 0.47197 -0.26131 0.023346 0.16412 -0.032586 -0.11427 -0.044843 0.2585 -0.1586 0.08196 -0.10906 -0.00394 0.19828 -0.23122 -0.31433 0.16968 0.23112 0.020399 -0.43865 -0.32549 0.057439 -0.056602 -0.093674 -0.12569 0.16818 -0.42899 0.39754 -0.48256 -0.096377 0.37917 0.21404 0.17995 0.597 0.045022 0.12504 -0.5347 0.009441 0.24872 0.17589 0.18005 0.10672 -0.18238 -0.051261 0.27787 -0.24289 -0.029642 0.20926 0.20987 0.05661 -0.40746 0.26623 
2_ -0.47479 0.28263 0.27989 -0.39591 -0.50463 -0.050953 0.089134 -0.052139 -0.36847 -0.025474 0.054147 0.35502 0.52825 -0.40311 -0.2641 -0.25073 0.72655 -0.12157 0.069589 0.20242 0.2823 -0.17978 -0.094649 -0.12902 -0.10632 -0.094673 -0.086286 -0.14794 0.15427 0.56138 0.52808 0.67275 -0.18251 -0.0084783 0.19193 -0.015731 0.21416 0.73924 0.41199 0.1628 -0.19725 -0.25516 -0.72773 0.60624 0.22221 -0.026502 0.40053 -0.2373 0.18459 0.38009 -0.5994 -0.46379 0.47637 -0.19161 -0.070714 0.40766 -0.18707 0.1763 0.21519 0.0018945 0.042529 0.37668 0.17914 -0.46743 0.027327 -0.027363 -0.27092 -0.014193 -0.1574 -0.58654 -0.27545 0.17078 0.0081036 -0.13825 -0.15795 0.16537 -0.18298 -0.22512 -0.29467 0.083752 0.17196 -0.2038 -0.070437 0.18309 -0.44426 0.55916 -0.13453 -0.12493 0.15183 -0.19447 -0.27311 -0.638 0.1738 0.021496 0.7308 -0.35344 0.053967 0.40681 0.24983 0.13036 
▁kasz -0.094318 -0.46389 0.47537 0.62128 -0.66323 0.016382 -0.60222 0.51095 0.2179 -0.17236 0.16094 0.64422 0.67602 -0.15498 0.32281 -0.29342 -0.22383 0.26379 -0.033238 0.086292 0.041068 0.63559 0.14586 -0.21735 -0.35958 0.49764 -0.41115 -0.0037327 0.026923 -0.49224 0.52928 0.54554 0.17507 -0.45577 -0.16475 -0.14491 0.17753 -0.60353 -0.29205 0.43745 0.17527 -0.49772 -1.0684 -0.50412 -0.73522 -0.36615 0.23917 0.41074 -0.24813 0.31001 0.011999 -0.43547 0.65539 -0.25337 0.53986 0.18773 0.12735 -0.54455 -0.59501 0.57341 -0.37942 -0.11191 -0.41083 -0.59301 -0.48461 0.46677 0.0064031 -0.34085 -0.0058556 0.35527 -0.12428 -0.60803 -0.14922 0.81667 -0.51505 0.35244 0.63114 -0.19492 0.25477 0.5272 0.65698 -0.24187 0.63735 0.37809 -0.8838 -0.30909 -0.40421 0.20393 0.20728 0.56474 -0.42729 -0.059192 0.71106 -0.46994 -0.56532 -0.34578 -0.86438 0.075756 -0.51503 0.7597 
▁masz -0.24361 0.41757 0.11121 0.01497 0.029711 -0.34812 -0.092333 -0.10969 -0.010975 -0.32975 -0.31716 0.31019 -0.23527 0.5727 0.24159 0.033678 0.7816 -0.26448 -0.10211 0.37484 -0.064134 0.11786 0.12278 -0.21926 0.3036 -0.071588 -0.12352 -0.35451 0.14487 -0.10293 -0.20606 0.56132 0.094459 -0.32481 -0.39427 -0.2112 0.67112 0.02096 0.081805 -0.072256 0.53151 -0.4918 -0.62376 0.090564 0.32694 0.039891 0.13946 0.14646 0.14235 0.52932 0.41559 -0.16729 0.16165 -0.38456 0.61071 0.45395 -0.26218 -0.13385 -0.14442 -0.1026 -0.33897 0.095393 -0.57228 0.22446 -0.89373 0.4711 0.15061 -0.40482 -0.60694 -0.062475 0.39557 0.54242 0.32272 -0.23675 -0.16888 -0.054484 -0.073336 0.16495 0.48719 0.26593 0.37299 0.27951 0.73401 0.36805 0.39935 0.33112 0.2309 0.25116 0.1221 0.34648 -0.079237 0.5483 -0.38655 -0.90886 -0.38726 -0.56107 -0.18326 0.55985 -0.09351 0.27024 
▁m -0.67176 0.77991 0.086176 -0.32114 -1.045 -0.79023 0.98727 0.14266 -0.69059 -0.30936 0.19576 0.82162 -0.28419 0.60123 -0.82274 0.80467 0.78451 -0.85311 -0.25654 -1.1507 -0.7369 -0.55693 0.58683 -0.331 -0.52655 -0.46076 -0.78458 -0.83435 0.096442 0.72107 1.3744 0.60279 -0.46484 -1.2717 0.1767 -0.27033 1.1174 0.67297 -0.32254 -0.15908 -0.021022 0.35989 -0.81618 -0.53232 -0.15092 0.022318 0.0036798 0.19812 -0.62527 0.29237 -0.10618 0.24856 0.37165 0.38276 0.4005 0.32799 -0.052333 -1.1386 -0.34904 -0.49031 0.30784 -0.37083 -0.48368 -0.38334 0.83315 1.5909 1.3059 0.56856 0.56893 0.14563 0.75815 0.96374 0.31313 0.59463 -0.15636 0.46545 -0.076655 0.12138 -0.16192 0.50357 0.41281 1.0198 0.85677 0.26118 -0.36952 -0.43429 0.037263 0.38953 -0.097657 -0.11988 0.99671 -0.51848 0.36942 0.053443 -0.49529 -0.21187 -0.4151 -0.13273 -1.303 0.032547 
sar 0.090377 -0.017382 0.12272 -0.12018 0.03461 -0.30212 0.15901 0.29064 0.44095 0.077931 0.06962 0.41305 -0.29009 -0.31341 0.01686 0.30631 -0.468 0.24756 -0.15511 -0.24505 0.24193 0.16735 0.48072 0.1728 -0.43657 0.039337 -0.023718 0.22679 -0.00558 -0.061817 0.58931 -0.1234 0.22089 -0.53416 -0.0046117 0.2944 0.033628 0.19478 0.4148 -0.47071 -0.14938 -0.017676 -0.18868 -0.67762 0.4737 0.046576 -0.1571 0.30842 0.3528 0.27447 -0.52239 -0.72238 -0.029971 -0.44489 0.095185 0.27833 -0.20516 -0.3817 -0.024637 0.79443 0.19697 -0.12706 -0.098396 -0.088851 -0.063333 0.033031 0.41623 -0.36059 -0.1772 0.24078 0.10135 -0.016833 0.14029 -0.44918 -0.26914 0.51692 -0.32553 0.10492 -0.061707 -0.38201 0.39906 0.63784 0.18955 -0.21308 0.11373 -0.18547 -0.10496 0.031266 -0.49141 -0.67895 0.29795 -0.41269 0.29057 0.20878 0.20544 0.05369 -0.91451 0.055653 0.46069 0.37173 
suen 0.17295 0.1678 0.13555 0.057846 -0.38522 -0.79798 -0.36449 0.024082 0.3955 0.43281 0.062176 -0.32366 -0.51054 -0.23253 0.090016 0.24516 -0.26726 0.090184 -0.061001 0.60108 -0.1971 -0.62481 0.51681 -0.39016 0.31423 -0.045798 -0.198 0.30907 0.87456 0.62206 1.131 0.067737 -0.28745 -0.1191 -0.35855 0.3992 -0.51695 0.19382 0.42688 0.34915 -0.42011 -0.26485 -0.62716 -0.71735 0.87981 0.72059 -0.69154 -0.47003 -0.37383 -0.058499 0.18619 0.57759 0.11186 -0.1972 0.37482 0.054958 0.70977 -0.27321 -0.14559 0.26647 0.3371 -0.37198 -0.66112 -0.77778 0.11618 0.72306 -0.02949 0.51579 0.12208 -0.40903 -0.092209 -0.2036 0.73592 -0.011209 -0.36183 -0.59729 0.19526 -0.09992 0.53122 -1.0454 -0.081138 0.59343 0.033724 0.59352 -0.16155 -0.90802 -0.16975 -0.42726 0.12861 0.53136 -0.10052 0.13344 -0.092541 -0.36803 -0.055693 0.43046 -0.29964 0.22711 -0.041529 0.32607 
